Weight data for conv1 in [Kernel, z, y, x] 
-0.0147258 -0.00298056 -0.0133165 -0.00910343 -0.0115813 -0.0196738 -0.0238039 0.00334216 0.0293484 -0.0156836 -0.0116381 0.00939398 -0.00506253 -0.00397189 -0.00513566 -0.00101986 0.0175925 0.00896202 -0.000908464 -0.0108468 -0.00894019 0.00682729 0.00380918 0.00360634 0.00271979 0.00996325 -0.00208608 -0.00824596 -0.0077172 -4.00626e-05 0.0135778 0.0127735 0.00852233 0.0196707 -0.00206951 0.0134194 0.023391 0.00691984 0.0169282 0.000213848 0.000784206 0.0195736 0.00966313 0.00912325 -0.0137858 -0.00509158 0.0198339 0.00448056 0.0116084 0.00133732 -0.008775 -0.00802566 0.00785811 -0.0122822 0.00748763 -0.00290194 0.00354314 0.0254628 0.0118477 -0.00192782 -0.0127202 0.00325604 0.0101392 0.00867424 0.0242773 -0.0133311 -0.0108889 -0.00363446 -0.00831617 0.0130738 -0.0142397 -0.0104305 -0.0101837 -0.011043 0.00352682 -0.0179918 0.000142171 -0.0282744 -0.0200433 0.02193 -0.0399598 -0.0184183 0.0285883 -0.0367744 -0.0317 -0.066581 -0.0356427 0.0906367 0.0527559 -0.0343347 -0.0158437 -0.0355896 -8.87118e-06 0.034192 0.00529845 -0.0120365 -0.0278866 -0.0187521 -0.00319281 -0.0191644 0.0139726 -0.0101004 0.0359921 0.0212694 -0.0483536 0.00901966 -0.0151978 0.00676898 0.0545302 -0.00671881 0.00751624 0.00119124 -0.00596435 0.0238989 0.00389162 0.0114749 0.0218628 0.0227487 0.0115696 -0.00773625 0.00874277 0.00693799 0.00385179 0.0187506 -0.00130926 -0.0191235 -0.0208557 0.0372378 0.0587469 0.00915519 -0.0424657 -0.0545873 0.053436 0.107989 0.0257922 -0.0115303 -0.0309888 -0.0724313 -0.0466794 0.0144806 -0.0241576 -0.0155569 -0.0110039 -0.0155534 0.0068172 -0.00678468 0.00702677 4.33672e-05 0.0135888 0.00834292 -0.0159998 -0.0127285 -0.00282189 0.00067754 7.02823e-05 -0.00621598 -0.0224195 -0.0273844 0.0402873 0.0143329 -0.0078767 -0.0375969 -0.0379571 0.0229953 0.00766093 -0.000872119 -0.0141063 -0.0092318 -0.00558043 0.000715445 -0.0239312 -0.0136571 0.00042405 0.00190362 0.00169996 -0.00584081 0.0113762 0.0135335 0.0501298 -0.00787347 0.0193407 0.000298808 -0.0375542 -0.0177879 0.0197071 0.0185198 0.0129547 -0.0419256 -0.0583914 -0.0114465 0.00329295 0.00740603 0.00231105 -0.00828674 -0.019612 0.0019968 0.0190159 0.00754336 -0.00564985 -0.0128577 0.0110495 -0.000882897 -0.000583374 0.00332838 -0.0096936 0.0147265 -0.00626739 -0.00398997 -0.00929256 -0.0133978 0.00948981 0.000677511 -0.00323323 -0.00236923 0.00162946 0.0108379 0.00944029 -0.00492576 0.00155704 0.010834 0.0109119 0.0100725 0.0096106 0.00174539 0.00596432 -0.00857226 0.0110387 0.0142652 -0.00406925 -0.0425054 -0.0474953 -0.0762456 0.0916424 0.197867 -0.069152 -0.0964076 -0.170121 0.00623738 0.196315 -0.0179195 0.00663078 -0.0296204 -0.0691442 0.00152063 0.0182482 -0.0035267 -0.00817755 -0.0335889 -0.00462127 0.00117913 0.00795483 0.00782112 -0.0315808 -0.0287176 -0.00712384 0.0315642 0.0468492 -0.0214007 -0.0422498 -0.0297051 0.0236877 0.0384093 -0.0186382 -0.0320587 -0.0329341 0.0309446 0.0234066 -0.00935051 0.00169859 0.00640088 0.021065 0.0188498 -0.00378466 -0.0132633 0.00250676 -0.00859663 -0.011415 0.00414028 0.00957181 -0.0437994 -0.0209587 -0.0221799 0.00316122 0.0153092 -0.0251314 -0.00281296 0.00828937 -0.0151253 -0.0182514 -0.00588751 -0.00673701 0.00143445 0.0129112 0.0107789 0.00150893 0.00642694 0.00528599 0.00166619 0.00215997 -0.00250294 0.0232515 0.016545 -0.0246622 -0.0315796 0.00882754 0.035061 -0.00605773 0.0177993 -0.0301947 -0.0157142 0.0418846 -0.00409557 -0.0142858 -0.0172457 -0.0159847 0.0235199 0.0163426 -0.0128738 -0.0160931 -0.0116273 0.00213662 0.00532102 -0.00361341 -0.00596663 -0.0135822 -0.0179908 -0.00285384 -0.0113254 0.00212517 -0.00704838 -0.0262195 -0.0160046 0.00591449 -0.000774713 -0.0063826 -0.0274502 -0.0185652 0.0330742 0.0208782 -0.00812984 -0.0141464 -0.00717778 -0.0043077 -0.01411 -0.016386 -0.0172393 -0.0157153 -0.0157605 -0.0185114 -0.0196165 -0.00649845 0.00926552 0.0025767 -0.00215291 -0.00128591 -0.000904158 -0.0200348 -0.00147408 0.0109937 -0.00145846 -0.00276149 -0.0077189 -0.0125845 0.0265065 0.0127239 -0.0125452 0.00944995 -0.00788015 0.0017466 -0.00686175 -0.0260198 -0.00978384 -0.0167575 -0.00948034 -0.00259574 0.0113935 0.00652755 -0.0382772 -0.0325665 -0.00623291 0.0148409 -0.00118022 -0.0622637 -0.0384903 -0.029157 0.0186127 0.00288614 -0.0408337 -0.0286159 -0.012512 0.0071662 0.0132266 -0.0117175 -0.0108787 0.00914018 0.0159916 0.028776 0.0143444 0.00512595 0.0116968 -0.040466 -0.0466548 -0.010788 0.0171846 -0.0330029 -0.0338738 -0.0721614 -0.0233909 0.0961782 0.031048 -0.000534068 -0.00042167 -0.0487688 0.00770009 0.0315718 -0.0084542 0.0101012 -0.00314646 -0.0132395 -0.0116307 -0.0152428 -0.00828773 -0.0168589 -0.00993123 -0.0225368 0.0032064 -0.00420243 -0.0381085 -0.0269962 -0.00781475 -0.037798 -0.0408499 0.0244996 0.0405794 -0.0370647 -0.0305514 -0.0301024 -0.000692948 0.0393627 0.0105724 -0.0146334 -0.00288143 -0.00199251 0.00401515 0.00753931 -0.00805355 -0.000511692 0.00057076 0.0139008 0.0146971 0.0261321 0.0226882 -0.00726121 -0.00882543 -0.00438874 0.0155454 0.0070864 -0.0164465 -0.0206605 -0.0119827 -0.0108661 -0.0133231 -0.0575152 -0.0245159 -0.0266424 -0.0039964 -0.00167381 -0.0187368 -0.012883 -0.0109785 0.00785325 0.000544352 -0.012395 -0.00894362 -0.0128812 -0.0111791 0.0210863 -0.00593228 -0.0367535 0.0191625 -0.0221989 0.00373754 0.0644252 0.00430397 -0.0167564 -0.0168234 -0.00951362 0.12206 0.114673 0.00440642 -0.00680429 -0.0200629 -0.000557924 0.0277134 0.0150016 -0.0198381 -0.0101396 0.00170103 0.0162166 0.00934215 -0.0259925 -0.0436934 -0.0473476 0.0399075 0.00275804 -0.0174107 -0.0667327 -0.0730733 0.115035 0.0688947 -0.0186237 -0.0276349 -0.100111 -0.0333771 0.006436 -0.00770875 0.0157347 -0.00278669 -0.0227245 -0.0206306 -0.00634761 0.0131872 0.0221924 0.0239055 0.00630884 0.010979 0.0202407 -0.00305965 -0.00971925 -0.00494491 0.00392895 0.0179634 0.00906971 0.0178417 -0.00588801 -0.00225328 -0.00650385 -0.00431486 0.0206568 -0.00631045 0.00452102 -0.000511679 -0.00457077 0.00301416 -0.0139173 -0.00774534 -0.000162799 -0.00511471 -0.00183708 -0.0131109 0.0101459 0.0123729 -0.0391957 -0.00891092 -0.0125615 0.0047536 0.00389124 -0.0472741 -0.00921021 -0.00187118 0.00536458 -0.00394924 -0.0422415 -0.0198413 0.00442413 0.00201008 0.00623586 -0.0215928 -0.0176275 -0.00860802 0.00528123 0.0171345 -0.00283794 0.000224646 -0.00345408 0.00153779 -0.0100655 -0.0238073 -0.0162065 0.00170334 0.00151714 -0.00319672 0.002631 -0.0340762 -0.031563 0.00579856 -1.97753e-05 -0.0125144 -0.0311303 -0.026604 0.00202375 -0.00689983 -0.00431651 -0.0190238 -0.0161742 -0.00283831 0.00440516 -0.0065969 -0.0173302 -0.00797115 -0.0248914 -0.00288904 0.01727 0.0330462 0.0277768 -0.0382706 -0.0413381 0.0241797 0.0852029 -0.00504209 -0.050911 -0.0617335 -0.0174892 0.0549518 -0.00893835 -0.00269951 -0.00482626 -0.00628271 0.0017979 0.0063437 -0.0234953 -0.0238414 -0.0250576 -0.00843588 -0.0100871 -0.00729753 0.0168934 0.00164997 0.00273146 -0.00472541 -0.00170832 0.0114212 0.000931136 0.00420659 -0.00422463 -0.0138653 -0.00919481 0.0216628 0.0248459 -0.00829442 0.0105374 -0.00616938 -0.000553772 0.0168288 -0.0041491 0.0101045 0.00544493 0.00496297 0.00272476 -0.00627811 -0.0148386 -0.000506676 -0.000873638 -0.00581255 -0.019878 0.00184075 0.0076474 -0.016115 -0.00688462 0.0119208 0.00718417 0.0054024 -0.0208529 0.0128119 0.00481684 -0.00370852 0.0083213 -0.0207957 -0.00080844 -0.0179397 -0.00216736 0.00421689 0.00464121 0.0112448 -0.00536979 0.000192804 -0.0104682 -0.0176036 -0.0151633 -0.0049762 -0.00299404 -0.00987187 -0.0277976 0.0737611 0.0304456 -0.0256086 -0.0314313 -0.0757553 0.0856811 0.0516028 -0.0234798 -0.0285032 -0.0545566 -0.0163691 0.00424348 -0.016836 -0.022988 -0.0324851 -0.0213169 -0.0156302 -0.0105413 -0.00575457 -0.00730314 0.00320251 0.0174182 0.00221334 0.00114165 0.00609303 -0.0106918 0.00573199 0.00491141 -0.018539 0.0158289 -0.0112244 -0.0078524 0.00480841 -0.0154697 0.00282235 -0.00713222 0.000313137 -0.00164026 -0.00957661 -0.00309248 -0.00166585 0.00326169 0.0105026 -0.00370114 -0.0140393 0.00562881 0.00728715 0.0253334 0.00173942 -0.0285308 -0.0141651 0.0160371 0.0233756 0.0205838 -0.0244003 -0.0211855 0.00969125 0.0132527 0.00618704 -0.000148599 -0.00049617 -0.0112942 -0.00331833 -0.00799312 -0.0102918 -0.00567501 0.00102375 0.0195673 0.0100814 -0.000410395 0.00616456 0.0086711 0.0201842 0.00798221 0.0579126 -0.0269473 -0.0153565 0.0157681 0.00536656 0.0448039 -0.0196144 -0.00603103 0.00373098 0.00960908 -0.000675572 -0.0127028 0.00372794 -0.0011234 0.00238849 -0.0117765 -0.00136179 -0.00275906 -0.0764228 -0.0404899 0.0106683 0.0639886 0.00883403 -0.117778 -0.117278 0.0627737 0.276212 0.0709145 -0.117882 -0.136158 -0.0328369 0.190597 0.0809505 -0.0468156 -0.0381564 -0.0459165 0.0192767 0.038875 -0.0508078 -0.0255042 -0.0253903 0.00471292 0.0147121 0.0223489 0.00451399 -0.0047179 -0.00860643 -0.0176617 0.0321222 0.00194245 -0.0374094 -0.0396393 0.0284659 0.0206267 0.00211397 -0.0351167 -0.0121866 0.0193861 0.00969957 0.00231554 -0.0135118 0.00321635 -0.0129099 0.00501455 -0.00618668 -0.0178099 -0.00845636 -0.000691355 -0.00684203 -0.00404775 -0.00433801 0.00393549 -0.00783883 0.00407584 -0.00867141 -0.00841744 -0.000878242 -0.00485881 0.00169702 0.00865233 -0.000400873 0.00715177 0.00569637 0.0078862 0.011241 -0.00480713 -0.00768456 -0.0125262 0.0024105 0.000918685 -0.000991086 0.00409785 -0.00255403 -0.00934572 0.0037641 -0.0259881 -0.000461248 -0.0123578 -0.00483205 -0.00581382 -0.0519354 -0.0340042 0.00368491 0.0191344 -0.00369214 -0.00653469 -0.0161484 0.00316512 0.00171269 0.0158996 -0.00522554 0.0035306 0.00160237 0.00712748 0.0173349 0.00366836 -0.00513318 -0.00103596 -0.0100782 -0.0310685 -0.00120792 -0.0232852 -0.00112249 -0.000324391 -0.0411405 0.0229195 0.00900194 -0.0351546 0.00245628 -0.0343936 -0.0109618 0.0298095 -0.0145729 -0.00627806 -0.00957965 -0.013743 0.00081626 0.0127047 -0.00625277 -0.00835022 0.0049668 -0.00194377 -0.00849247 -0.00188425 -0.00382604 -0.00396443 0.00834334 0.00355012 0.0123977 0.00211979 0.0131439 0.0295716 -0.0123944 0.0127536 -0.0109768 0.00960909 0.0120583 -0.00762914 -0.00315194 -0.00614722 -0.00395887 0.00753737 0.002441 -0.00259608 -0.00794125 0.00330933 -0.00782354 -0.000737922 -0.00981989 -0.00228083 -0.00689212 0.00312827 0.00110717 0.00478686 -0.00511501 0.00103247 0.0182626 -0.00117473 0.00472321 -0.00397827 -0.000889509 0.00977929 0.00492035 -0.0203912 -0.00720389 4.93197e-05 0.000805937 -0.00279603 -0.0168003 0.00617793 0.00695907 0.0108521 -0.00563403 0.0142062 0.0241001 -0.00321205 -0.0110993 -0.0108221 0.0314677 0.0412407 -0.0126955 -0.0407224 -0.01267 0.0255277 0.0460726 0.0112688 -0.0284007 -0.0177266 0.00563101 0.0164671 0.0161626 -0.00742074 -0.0134034 0.0176851 0.0319664 0.00765278 -0.00293425 0.00434569 -0.0613048 -0.0420807 -0.0146746 -0.00175102 0.02193 -0.0827349 -0.0785872 0.0570833 0.0912701 -0.00515356 -0.0861611 -0.0997349 0.0531789 0.123321 0.0273166 -0.0560797 -0.0529661 -0.0157027 0.0266912 0.0442202 -0.045459 -0.0295871 -0.0098673 0.0130075 0.0306465 0.00822132 0.00680498 -0.00285273 -0.00295683 0.0127161 0.0438468 0.0421191 -0.030305 -0.0440598 0.0144387 0.0380874 0.0394751 -0.00448425 -0.041127 -0.007993 0.0160671 0.0218144 0.0138794 -0.0150075 -0.00863615 0.0111784 0.00906499 0.0138221 0.00621165 -0.0163221 -0.00603712 0.0126285 0.0150399 0.0149559 0.00819642 0.00975876 0.00445987 -0.00167606 0.0132868 0.00303926 0.00119975 0.00260261 0.00979197 0.0101524 -0.0092349 -0.0022914 0.0104931 0.0136835 -0.0031978 -0.00799864 0.00172431 0.00282042 0.00646044 0.00812456 0.00739688 -0.0104388 0.0150496 -0.0149301 -0.0112505 -0.0121681 -0.0143843 -0.0104108 0.01681 0.048921 0.00343526 -0.0138161 -0.0158982 0.0162724 0.0479315 0.00951978 -0.00249438 0.00319963 -0.00761446 -0.00423684 0.0118423 -0.0260675 -0.00135098 -0.0125016 0.00612658 0.00696022 -0.0184123 0.0123 0.00408959 -0.00495173 -0.00484191 -0.0149182 -0.00804749 -0.00408298 0.0289695 0.00065937 -0.0125364 -2.2891e-05 -0.00403144 0.0122878 0.00363621 -0.0182982 0.00759136 0.00142272 0.00969013 0.00986733 -0.0107707 0.0088863 0.00183406 0.00808393 0.00304244 0.0201801 0.0111621 -0.0201847 -0.0299314 -0.00216359 0.0197502 0.0067431 -0.0564747 -0.0755317 -0.00480708 0.0128036 0.0136644 -0.0180145 -0.0441017 0.00923444 0.00758504 0.0125749 0.0141373 0.00821301 0.0241426 0.0134063 0.00830792 0.0133534 0.0219937 0.0220125 0.0111368 0.0163876 -0.00155552 -0.00853672 0.0150302 -0.0250311 -0.0190678 0.0113463 0.0301447 -0.0268777 -0.05512 -0.0752345 0.038495 0.148073 -0.000271821 0.00381742 -0.0342151 -0.0336372 0.0305497 0.0135695 0.00159277 -0.00533986 -0.00382296 0.00868929 -0.00430593 -0.0158353 -0.00666698 0.096261 0.0475434 0.000266199 -0.088821 -0.0420187 0.246817 0.176587 -0.0439876 -0.0748746 -0.0651004 0.11949 0.113618 0.0249877 -0.0477774 -0.0673486 -0.0116324 0.0131326 0.0332888 -0.0358633 -0.020303 -0.0068585 -0.00825465 0.00969263 -0.00658802 0.0213207 0.0167825 -0.0152069 -0.0140602 -0.00242219 0.0504753 0.117938 -0.000827801 -0.0412798 -0.0152147 0.00728032 0.130346 0.0611611 -0.0260117 0.0135266 0.00956368 0.02479 0.034536 0.0251091 0.00212297 0.010728 0.00888606 0.0073361 0.00644246 -0.0238404 -0.00350897 0.00154606 -0.00691465 -0.0177945 -0.0120471 -0.00808466 -0.0183541 0.00274953 -0.0132813 -0.0155852 -0.0270949 -0.0157353 0.0421564 0.00242179 -0.00658105 -0.00258086 -0.00411823 0.00908666 -0.0182702 0.000684969 0.00337425 -0.00091613 0.00336321 -6.68631e-05 0.0212006 0.0283019 0.00524047 0.0268125 0.012162 0.0108231 0.0324169 0.00729981 0.00929018 0.00759542 0.028205 0.025401 -0.00677725 0.0181842 0.0121153 0.0117171 0.0135117 0.0151225 0.0122099 -0.0236284 -0.001727 0.0100413 0.010915 0.0131933 0.00730957 -0.0101256 0.0302449 0.00614257 -0.00270001 -0.00846368 0.00799826 0.0196603 0.00521998 -0.0127338 -0.0145422 0.00426359 -0.00220508 -0.00578154 -0.00639786 -0.0048417 -0.0104116 -0.00917077 -0.0201201 -0.00648683 0.00494206 -0.00488586 -0.00466441 -0.0240886 -0.00810337 -0.00370062 0.00777291 0.00239802 -0.0158107 -0.0145429 -0.00541903 -0.0151689 -0.0386927 -0.047255 -0.0387331 -0.026232 -0.019148 -0.0496716 -0.0348769 0.00202724 -0.0345122 -0.00888565 -0.0289229 -0.00333117 0.019054 -0.0432004 0.0210045 0.0024529 -0.00984739 0.00151884 -0.00715264 -0.0504392 -0.0309367 -0.0240374 -0.00762189 0.00457978 -0.0654996 -0.0874786 -0.0712556 0.0641031 0.0760974 -0.0475994 -0.0614808 -0.0899725 0.124592 0.139255 -0.0144302 -0.0152681 -0.0296645 0.0425153 0.0528746 -0.0178609 0.0159072 0.0119351 -0.0272871 -0.019094 -0.0136684 0.00807086 0.0109418 0.0225357 0.0125452 0.0113179 0.013398 0.0127319 0.0475326 0.0338564 0.00456404 -0.000911768 0.0153353 0.0512889 0.0253665 -0.00679313 -0.00637416 -0.015217 -0.00443773 0.00699389 0.00685769 0.00337911 -0.0101617 -0.0042101 0.00602393 -0.0254416 -0.0156164 -0.00656057 -0.0191854 0.00689551 -0.00784722 0.00605746 0.00457961 0.00392151 0.0105308 -0.0181863 0.00438518 0.00906079 0.0133918 0.0176114 -0.0116013 0.00252288 -0.000405653 0.00217521 0.00704472 0.00231685 -0.0137408 -0.0181437 -0.00957052 -0.0137509 -0.00977494 -0.0150792 0.00290147 0.0190792 0.00868665 -0.00998358 -0.0188826 -0.000797178 0.0451973 0.0316343 0.00315023 -0.0163572 -0.0208151 0.00653242 0.00278231 0.0133368 0.00107147 -0.0280373 -0.0298168 -0.0269286 0.00449363 0.00882983 0.00457672 0.0065109 -0.00985726 0.00928219 0.0197165 0.0129339 -0.000232208 -0.00685231 0.0162823 0.0255037 0.00415568 -0.0025485 0.00676313 0.0177217 0.0197524 -0.0229448 -0.016142 -0.00419123 0.0143018 0.0246617 -0.00582398 -0.0178228 -0.0156322 0.00524697 0.00546882 0.000132805 -0.00368371 -0.00653808 -0.0193273 0.00498219 -0.00619597 -0.00870777 0.00586471 -0.0303192 -0.0235034 -0.0246696 0.0134302 0.0280169 -0.0324355 -0.0681716 -0.028405 0.124051 0.0637874 -0.0194676 -0.0445785 -0.0253887 0.100359 0.0262114 -0.0305218 0.00586875 -0.000840646 -0.00443234 0.0181539 0.0237285 0.02247 -0.00176064 -0.0144756 -0.00360055 0.0174919 0.0125298 -0.0280749 -0.0220923 -0.00899703 0.00669894 -0.000194097 -0.0375571 -0.0168767 -0.000372348 0.0122106 0.0120647 -0.0228675 -0.010745 -0.0119076 0.0139501 0.0175469 -0.00335792 -0.00408601 -0.00441126 0.00605386 0.00895177 -0.00113885 0.0138242 -0.00243143 -0.0102136 -0.0161816 -0.00217714 0.0145418 -0.00723361 -0.00210745 -0.0105911 0.00319916 0.0290547 -0.00252162 -0.00365533 0.000902378 0.00309885 0.00648606 -0.0257832 -0.00345929 0.0122025 0.0246332 0.0153825 -0.00264211 -0.0164569 0.00578773 0.00581715 0.00130387 0.0118139 -0.0265125 -0.017578 0.0400549 0.0858286 0.0374861 -0.0264435 -0.0259917 0.100474 0.157157 0.0556237 -0.00861124 0.000304493 0.0637886 0.09387 0.0331815 -0.0126194 0.0100954 -0.00592555 0.00286517 0.0236552 -0.00359398 -0.00305562 -0.00726197 -0.00397396 0.000278054 -0.00860622 -0.00170682 -4.22231e-05 -0.00422369 0.0161986 -0.000376677 -0.00144431 0.00219994 0.0139964 0.0274859 -0.00247806 0.00463306 0.0231888 0.0130282 0.00652216 0.000321954 0.01045 0.0152994 0.003822 0.0034762 -0.0115478 -0.0137891 -0.0135072 0.00214767 0.00135568 -0.00567816 0.00159536 0.00031609 0.00941547 0.0084045 0.00175735 0.010056 0.00138152 -0.000153049 -0.0170705 0.0182502 0.0109353 -0.0126407 -0.019566 -0.020579 0.00629438 0.0119921 0.00909376 0.00525638 -0.0025609 0.029191 0.0365818 0.0243924 0.0167987 -0.0227501 0.0498941 0.0539395 0.0143462 -0.047881 -0.0703152 0.0788771 0.067689 -0.0175482 -0.138279 -0.10965 0.056805 0.0448127 -0.0258824 -0.068962 -0.0589473 0.0250579 0.0162075 -0.00649976 0.00795948 -0.0104063 -0.0139152 -0.0256528 -0.0245609 -0.0219929 -0.0082791 -0.0131044 -0.0387785 -0.0500852 0.00725621 0.0193288 -0.0293847 -0.0268436 -0.0429708 0.0305476 0.0425003 -0.0197254 -0.00959231 -0.0137632 0.00210083 0.0256744 -0.00471391 0.000767564 0.0102043 -0.0151033 -0.00381534 -0.0136163 0.00560572 -0.00215326 0.0134462 0.0190306 -0.0436287 -0.040156 0.00549371 0.0678047 0.0342916 -0.0691972 -0.0757985 0.0630064 0.169851 0.0555968 -0.052851 -0.0494454 0.0216237 0.096501 0.0359637 -0.0305235 -0.0080392 0.00750688 0.00826212 0.0309987 -0.0154126 0.00688239 -0.000373769 -0.00902539 -0.0190922 0.00469737 0.00341835 -0.0121676 -0.0319403 -0.0115301 -0.0113129 -0.0280949 -0.0497802 0.0405865 0.0715119 -0.0313906 -0.049915 -0.0414983 0.0675372 0.0507212 -0.0218433 -0.0293873 -0.0262849 -0.00542134 -0.006747 0.00810848 0.0062271 -0.0143616 -0.0177458 -0.00706554 0.00975679 0.0100193 -0.0297876 -0.0416158 -0.00822911 -0.00237285 -0.00712964 -0.0162795 0.00132246 0.0116882 -0.00685801 -0.00457488 0.00599346 0.0488854 0.0195993 -0.00852793 0.00425919 -0.0182123 0.00757716 0.0202597 0.0169585 0.00682392 -0.0127241 -0.00985753 -0.018969 0.027248 0.0173415 -0.00756205 -0.0746639 -0.0962089 0.00384602 0.000279601 0.0103536 -0.0641432 -0.124474 -0.0089544 -0.0163464 0.0177402 0.0117243 -0.0380395 -0.00464966 -0.0095078 -0.00683636 0.0111738 0.00907224 -0.00707844 0.00521343 0.00760238 0.00433737 -0.00740453 -0.000360388 0.00519953 -0.00266552 0.00543616 -0.0141206 -0.0126059 -0.0187763 -0.0140156 0.0399789 0.00940925 -0.0213188 -0.014586 -0.00070814 0.0298143 -0.00276339 -0.00666289 -0.00131199 -0.00614892 -0.0085889 -0.00797855 -0.0196033 -0.00725912 -0.0176446 -0.0154135 -0.0138564 -0.029751 -0.0318902 -0.0386031 -0.00482536 0.00855545 -0.0432636 -0.0446611 -0.0471163 0.0171275 0.0349341 -0.0311967 -0.0300285 -0.0280462 0.0226387 0.0271446 -0.0236298 -0.0114841 -0.00511483 0.0166254 0.0111397 -0.0121427 0.00174407 0.0130342 0.0248701 0.035336 -0.0154472 -0.020734 0.0294507 0.0608581 0.0103444 -0.00832296 -0.0209553 0.0744982 0.0699383 -0.0124678 0.0026649 0.00195568 0.0316808 0.00981699 -0.00620171 0.00137042 -0.00111303 -0.00952741 -0.00484182 0.00669338 -0.0658106 -0.0358726 -0.0337919 -0.0161811 -0.00114541 -0.0710463 -0.0540948 -0.048686 0.0200352 0.0420363 -0.0666557 -0.0635411 -0.0411179 0.113567 0.111143 -0.0590197 -0.0453012 -0.018039 0.0887002 0.0703373 -0.061166 -0.0326303 -0.0125485 -0.00231969 0.00928416 -0.0242905 -0.0151045 0.00267483 0.0192785 0.000997032 -0.0177544 0.000622079 0.00142996 -0.00309814 -0.0145416 -0.0182943 -0.0297874 -0.0263685 0.0204591 -0.00216088 -0.0107568 -0.0390132 -0.00774315 0.0513263 0.00973201 -0.0100803 -0.00668249 -0.000582615 0.0188316 -0.00547777 -0.00910108 -0.00389959 -0.00813403 -0.0130082 -0.0121636 0.00619414 0.005629 -0.00217276 0.00376487 -0.0159742 0.0239976 0.016267 -0.0223523 -0.0100278 -0.0149987 0.00600671 0.00949399 -0.00807398 -0.0121446 -0.0133773 0.0067224 0.00717433 -0.0123383 0.00263971 -0.00676704 -0.0256063 -0.0169947 -0.015649 -0.0171136 -0.013382 -0.0189383 -0.019385 -0.0181996 -0.024654 -0.0165155 -0.0240696 -0.0171089 -0.0305208 0.0199785 0.0299514 -0.016298 -0.0172765 -0.0278169 0.0183018 0.0011959 -0.0104535 -0.0163931 -0.019584 -0.0410913 -0.0444443 -0.00264504 0.00169859 -0.0181906 -0.0199036 -0.00500937 -0.0171955 -0.00551449 -0.0110181 3.5631e-05 0.0165478 -0.00859341 -0.0146603 0.000509071 0.0154641 0.0103673 0.00516801 0.000144601 -0.00212594 -0.00238244 -0.00324033 -0.00042364 0.0180181 -0.00440833 -0.00334885 0.000589546 -0.0046851 -0.00906016 -0.00601535 -0.00565327 -0.00631399 -0.00621425 -0.0105972 -0.00394494 -0.0142348 -0.00571504 -0.0112227 -0.022862 -0.0161145 0.00482558 0.00240252 -0.00539356 -0.00619385 -0.00539742 -0.00115826 0.00468532 -0.00411521 -0.00682401 -0.00284004 -0.000819519 -0.000566645 -0.00815321 0.012298 -0.00208709 -0.00376734 -0.0154217 0.00705125 0.00689658 -0.0241486 -0.0148051 -0.0130699 0.0134992 -0.00494598 -0.0345221 -0.0161138 -0.00826882 -0.000294876 0.00115578 -0.0235516 -0.00757743 -0.0127272 -0.00414028 0.00934011 -0.00417595 -0.00413751 -0.0135516 0.0460358 0.0294211 0.0134717 0.00944814 -0.00739676 0.0556275 0.0402261 -0.00407687 -0.0658021 -0.0771905 0.064092 0.035555 -0.0447021 -0.121773 -0.126555 0.0607289 0.0346494 -0.0278508 -0.0869293 -0.10067 0.0462728 0.0328239 0.0070655 -0.00455512 -0.00289598 0.0127148 0.0245928 0.00349701 -0.0101222 -0.0107408 0.0360006 0.0289537 -0.0405171 -0.0495795 -0.0252048 0.0353438 -0.00266447 -0.0534358 -0.0650891 0.00511814 0.0225784 0.00782864 -0.0316809 -0.035637 0.00961623 0.00264438 0.00646913 -0.0242691 -0.00677675 -0.0171477 -0.0141012 0.00271029 -0.0101634 0.00572406 -0.00245924 -0.0134958 0.000885361 -0.00406805 -8.91143e-05 -0.00848715 -0.0066386 0.00271245 0.0148915 0.0366938 -0.00418406 0.00362611 0.00363892 0.00638514 0.0153126 -0.0259528 -0.00202376 0.000542571 0.00239424 0.00466081 -0.00374987 -0.000500173 -0.00534158 -0.00262118 0.00077672 -0.0194555 0.0175609 0.00415087 -0.0229744 -0.0111286 -0.0130802 0.0318975 0.0165618 -0.0409377 -0.0529346 -0.0274321 0.0323938 0.0109098 -0.0504887 -0.0527646 -0.0293125 0.0107861 0.0131721 -0.0148828 -0.0139512 -0.012616 -0.00193121 -0.00169161 -0.0179679 -0.00813321 -0.00696291 -0.00742676 -0.02106 -0.0183998 0.013727 0.00271867 0.00406746 -0.0266203 -0.016968 0.0499906 0.00727298 0.0120489 0.00221974 -0.0130976 0.024354 -0.00614997 -0.00732413 0.00874261 -0.00520794 -0.00470684 -0.00591121 0.00480776 -0.00227386 -0.00970205 -0.0161101 -0.0119313 0.0101353 0.014922 0.00247443 -0.0217388 -0.0134964 0.0195725 0.00725829 -0.0146311 -0.00852468 -0.0245893 -7.75307e-05 -0.012887 -0.0276068 -0.0203764 -0.0183362 -9.27996e-06 -0.00519252 -0.028183 -0.0152819 -0.0169454 0.00813926 0.00578463 -0.00753751 0.0023859 -0.000719934 -0.00228653 0.0118282 -0.00549776 0.00198175 -0.00116967 0.0142782 0.01303 -0.0134752 -0.00842733 -0.0165889 0.015051 0.0113895 -0.0159311 -0.021171 -0.0199401 -0.00246747 -0.00113645 -0.0165175 -0.0173979 -0.00707592 0.00513968 0.0156023 0.00728056 0.0224237 0.00327797 0.0247688 0.0350831 0.0262266 0.00859379 -0.00607692 0.0442343 0.0476777 0.0321701 -0.00321379 -0.0135499 0.0346634 0.0360159 0.011876 -0.0114422 -0.0250959 0.00993208 0.00396919 -0.00797964 -0.0051794 -0.0247484 0.0676978 0.0593913 0.0369159 0.00721113 -0.00262831 0.0827508 0.0781984 0.0185414 -0.0497037 -0.0447981 0.105923 0.078326 -0.0592923 -0.161891 -0.114332 0.097847 0.0643834 -0.0650526 -0.141612 -0.0959708 0.0714301 0.0437012 -0.00114212 -0.0323561 -0.0209942 -0.00967305 -0.00713826 -0.00229836 0.00494229 0.00954159 0.000885068 0.00546656 -0.00205539 -0.0183481 -0.00219898 0.0225126 0.0181316 -0.0215879 -0.023096 0.0122038 0.00880313 0.00127769 -0.0265981 -0.00809085 0.0116981 0.00245735 -0.0127332 -0.0196355 0.00922665 0.0170036 0.00614537 0.0190348 0.013926 0.0185557 0.00707666 0.0127909 0.0207794 0.00423164 -0.00522097 -0.0132446 0.0148002 0.0119339 -0.0116296 -0.00291247 -0.00751131 -0.001782 0.00567722 0.00541646 0.00500776 -0.00866605 0.00787295 0.0123793 0.00245757 0.00929434 0.00525881 -0.0107961 0.0106058 0.00217061 9.23542e-05 -0.0093435 0.0133978 0.0113681 0.00666008 0.010715 -0.0232906 0.00628119 -0.0084603 -0.0130647 0.00987412 -0.0227049 -0.00108604 -0.00221892 -0.00900865 0.0116346 -0.0174152 -0.0102844 0.00265375 0.00297094 -0.00166064 -0.00254011 -0.0297456 -0.00399497 -0.00396861 0.00150635 0.00751701 -0.0277344 -0.00656438 -0.0110211 0.00172973 0.0103812 -0.0321219 -0.0174275 0.00731029 0.0402898 0.0277307 -0.0331231 -0.00294347 0.00927169 0.0224205 0.0184466 -0.030837 -0.0106765 -0.00259984 0.0131674 0.0217569 0.0210133 0.0211558 -0.00841226 -0.00180257 0.0167794 0.0155936 -0.00829259 -0.0397936 -0.0132844 0.0148436 0.00277362 -0.0261226 -0.0539588 0.00527618 0.00789449 0.0122463 -0.0064674 -0.050643 -0.0242984 -0.0156346 0.0293679 0.0313063 -0.0077376 -0.016242 0.000800057 -0.0150128 0.0114088 0.0142424 0.0106021 -0.0199006 -0.0232131 -0.00433003 -0.00736365 -0.0123991 -0.0176528 -0.050518 -0.0579482 -0.0410282 0.0762125 0.0742697 -0.0438527 -0.0647283 0.00277574 0.121732 0.0523295 -0.0140999 -0.0281939 -0.0125222 0.0110575 -0.00692739 -0.00485492 0.00585628 0.0166307 0.0182984 0.00799594 -0.00628347 -0.0235166 0.0130031 0.0678915 -0.00312547 -0.017775 -0.0325295 0.0660853 0.137965 -0.0103763 -0.0121765 -0.00974437 0.0310306 0.0448234 -0.0138225 -0.00247523 -0.00405211 0.00668505 -0.0102749 0.00824795 -0.0190737 0.00185203 0.00414258 -0.0030471 0.00753208 -0.0185748 2.455e-05 0.0442992 0.0514905 0.00911664 -0.020251 -0.00160493 0.127705 0.139078 0.0219083 -0.00930167 0.0080124 0.0969191 0.114631 0.0312894 -0.00555087 0.021383 0.0347703 0.0363713 0.0425322 -0.0187015 -0.01107 0.00298409 0.00960538 0.0013484 -0.0310219 -0.0377497 -0.0245769 0.011535 0.0070955 -0.0290322 -0.0476805 -0.0162284 0.0097239 -0.000443272 -0.0103372 -0.0283861 -0.00495572 0.00126872 -0.00480348 0.00742737 -0.00595434 0.00032872 -0.00653248 -0.00159511 -0.0451514 -0.0177356 -0.0110946 -0.0334472 -0.0143706 -0.0240172 0.00191196 0.0085759 -0.0281785 -0.0181366 -0.00565091 0.00721864 0.0171025 -0.0156151 -0.00169836 -0.00178392 -0.0248961 -0.0137839 -0.0167352 -0.011054 0.00547024 -0.00359675 -0.0194236 -0.0277497 -0.00888881 0.00544403 -0.0123136 -0.00553166 -0.00323372 0.00810704 -0.0238094 -0.0445344 -0.0149279 -0.00555175 0.00708075 -0.0290913 -0.0480944 -0.0289419 -0.00533558 0.00439046 -0.0116988 -0.0282099 -0.0149186 -0.00897044 0.00741603 0.0108648 -0.00519075 -0.00174892 0.00105574 0.00441364 -0.0181727 -0.0710401 -0.0563833 -0.0146623 0.0117065 -0.0527249 -0.103619 -0.0750928 -0.022492 -0.000412764 -0.0195201 -0.0637042 -0.0852996 -0.0268403 -0.000554012 0.00292079 -0.0100674 -0.0206203 -0.00787427 0.0137934 0.0190756 0.015695 0.0102702 0.00557711 0.0238297 0.0139188 0.0199543 0.0170911 -0.0143851 -0.0111403 0.0293003 0.063553 0.0364927 -0.0112635 -0.00996235 0.0112834 0.0653865 0.0503329 0.00892852 -0.00752174 -0.00794936 -0.00735631 0.0192938 0.000871206 -0.00581461 0.000586829 0.000886477 0.00524799 0.000542835 0.00692729 -0.0218505 0.0342839 0.0464388 0.0171616 -0.00296491 5.20873e-05 0.0348625 0.0440528 0.0257484 -0.0148458 0.00534675 0.0108012 0.0178931 0.00427566 0.00108838 -0.0108728 -0.0225217 -0.00963586 -0.00781122 -0.0130588 -0.008258 -0.0206824 -0.016654 -0.0155458 -0.0281662 0.0336669 0.0458359 0.0200184 0.0151196 -0.00355643 0.0452249 0.0649486 0.0414345 0.019957 -0.00106854 0.0465096 0.0482919 0.0402003 0.027827 0.0158521 0.0156978 0.016803 0.0221161 0.000783554 -0.00411599 -0.00255623 -0.00956385 -0.0120643 -0.0128988 -0.00480198 -0.0159186 -0.0161007 -0.00658434 0.00353661 0.00687241 -0.0343671 -0.0290895 -0.0136344 -0.00253398 0.0111252 -0.0386112 -0.0262889 -0.00161408 0.00807692 0.0240536 -0.0138461 -0.0272087 -0.00123258 0.00909707 0.0171496 0.019096 0.0116409 0.0197528 0.0150507 0.0190259 -0.0147078 -0.0177464 -0.033466 -0.0130028 -0.00442505 -0.00378976 -0.0107485 -0.0309964 -0.016981 -0.000858571 0.00555519 0.00777529 -0.0103351 -0.00460012 0.00031662 0.00580633 0.00291593 0.00102408 0.00696913 0.00941126 0.0092218 0.00253938 0.00371901 0.00450885 0.0159771 -0.0358885 -0.0064933 0.00361759 -0.023827 -0.0268869 -0.0381096 0.0234849 0.0327975 -0.00633939 -0.0281707 -0.0179445 0.0360636 0.0676435 0.0334105 0.00685307 -0.0276951 -0.0108415 0.0337887 0.00968836 -0.0105973 -0.0332267 -0.0340097 -0.00923444 -0.0144752 -0.0248719 -0.0487996 -0.0455187 -0.017553 -0.00117236 0.0174778 -0.0656801 -0.0628372 -0.0125072 -0.000374231 0.0141036 -0.0643581 -0.0656091 -0.0150625 6.2717e-05 0.017744 -0.0392511 -0.0427361 -0.0220736 -0.00812035 0.0177636 -0.0245296 -0.0169919 -0.00627081 0.00196002 0.0287489 -0.0214715 -0.045214 -0.0406832 -0.0197096 -0.0100792 -0.0330723 -0.060752 -0.0484139 -0.012362 0.00526121 -0.0311113 -0.0453973 -0.0278191 -0.00396525 0.00939986 -0.00986694 -0.0213953 -0.0113494 0.00796306 0.0178538 0.00514522 6.25918e-05 -0.00268665 -0.00235704 0.001531 0.0137407 0.0186379 0.00944261 -0.015264 -0.0230502 0.0207996 0.0376875 0.00785909 -0.0180748 -0.0242773 0.0214759 0.0361079 0.0147065 -0.0167033 -0.0224004 0.00527743 -0.0109857 0.00560605 -0.00748029 -0.0159168 -0.0026045 -0.0179106 -0.0079935 -0.000269603 -0.0128346 0.0214021 0.0182495 0.0135454 0.00873691 -0.00666255 0.0429906 0.0711127 0.0360001 0.00266399 -0.0111867 0.036317 0.0854043 0.059434 -0.00239097 -0.0154079 0.00874044 0.0388865 0.0401501 -0.00112563 -0.0220574 -0.00671696 -0.0224741 -0.00252441 -0.0144262 -0.0183821 0.00559944 0.016755 0.00168948 -0.00386853 -0.000973669 0.0132855 0.0316196 0.02104 0.00861769 0.000357416 0.00527464 0.0357295 0.0521782 0.0241128 0.00652962 0.00476541 0.0208739 0.0354946 0.0175141 -0.00784552 0.00732982 0.00270048 0.00502002 -0.00436767 -0.0112094 0.00851343 -0.017635 -0.000619652 0.00300284 0.00466301 -0.0284693 -0.0386412 -0.0125447 -0.0036934 0.00115539 -0.0168972 -0.0415438 -0.0193333 -0.00526579 0.00393741 0.0163638 -0.00880087 -0.0108236 -0.00818163 0.00524588 0.0288457 0.0134694 0.00805989 0.00142551 0.00676174 -0.00796222 0.0152416 0.019964 0.0187762 0.00850113 0.00561486 0.0288824 0.0373581 0.0242581 0.0119337 0.015871 0.0269431 0.0391175 0.0320947 0.0135229 -0.00647849 -0.00736662 0.00611421 0.00538788 -0.000854391 -0.00972964 -0.0146669 -0.00713145 -0.0131714 -0.0214955 -0.00613006 0.00694375 0.00918838 -0.00315651 -0.000128956 0.0107883 0.0074996 0.00293979 0.00291408 -0.00964326 0.00974814 0.0110938 0.0281203 0.0151006 -0.0002638 0.00811899 9.71797e-05 0.0136372 0.0148903 0.00550983 0.0144671 -0.00485987 -0.00612343 -0.00352192 -0.00910961 -0.00781656 0.0244277 0.0459489 0.0127993 0.00599807 -0.017429 0.0273935 0.0333515 0.0134716 0.00779492 -0.00868656 0.00914287 0.0100689 -0.00324272 0.00440003 0.00489378 -0.00608402 0.00162242 -0.015271 -0.00685634 0.000835423 -0.00745216 0.00657467 -0.00587484 -0.00113051 0.0134319 0.00145436 -0.0105618 -0.0180941 -0.0204806 0.00548921 0.0484451 0.0281243 -0.0193654 -0.0177007 0.0219917 0.0794991 0.0716942 0.0081847 -0.0317633 0.00267714 0.0417374 0.0735552 0.0276533 -0.0133068 0.00624981 -0.00361525 0.0201809 0.00794154 0.00165376 -0.0129877 -0.0172003 -0.00607909 0.014565 0.0182197 -0.0240448 -0.0444264 -0.0171994 0.0273821 0.0303813 -0.00233949 -0.048566 -0.047206 -8.64377e-05 0.0225239 0.00106765 -0.0235153 -0.0398968 -0.022452 0.00284263 0.0240517 0.007184 0.00123 -0.000760274 -0.00686353 -0.0198082 0.0122949 0.0241937 0.015813 0.0135577 -0.0301201 -0.0141274 -0.000197792 0.00856772 0.0161814 -0.00827084 -0.0222791 -0.0165269 -0.00301758 0.0043506 -0.00672174 -0.00953189 -0.00343166 -0.0096391 -0.00429776 -0.00939452 -0.00932634 0.000704026 0.001114 0.00713945 -0.0462701 -0.0393006 -0.0318015 -0.0167287 -0.0204999 -0.0396293 -0.0356256 -0.0395989 -0.0249692 -0.0155733 -0.0319396 -0.0288106 -0.0344301 -0.0233178 -0.0180873 -0.0261604 -0.0198623 -0.0167048 -0.0150271 -0.0199863 -0.0213312 -0.0162696 -0.0126318 -0.0132066 -0.0202291 0.0209618 -0.00426153 -0.00908692 0.00140736 0.00395849 0.0144962 -0.0395834 -0.0220121 0.01526 0.00515656 -0.00416171 -0.0447795 -0.00844676 0.0246637 0.0164709 -0.00454226 -0.0390953 -0.0170437 0.0126419 0.0131956 0.00759589 -0.00597923 -0.0124978 -0.00249185 0.00854645 0.0169213 0.0566796 0.0527607 0.0143875 -0.00953901 0.0186114 0.0787047 0.0703231 0.0161906 -0.00688582 0.0200629 0.0744668 0.0825745 0.0281178 -0.00688628 -0.0154446 0.0230804 0.0435165 0.00576949 -0.0196329 -0.0401941 -0.0249291 -0.0115968 -0.0254738 -0.0362607 -0.00444942 -0.00640463 0.0104029 0.0145529 0.000209686 -0.0275706 -0.0122538 0.0220794 0.0268816 0.0179239 0.0051282 -0.0123647 -0.0141301 0.0106492 0.0203197 0.0175653 0.00715321 -0.00789963 -0.00804952 0.00156303 -0.000594384 0.0113765 0.0102973 0.00299842 0.0161131 0.00350034 0.00718644 0.00309022 -0.00656785 -0.0130913 0.0107947 0.0272188 0.0261908 -0.00532089 -0.00647954 0.00788335 0.0642293 0.0783881 0.0218615 0.00567002 -0.0152082 0.0322528 0.0686333 0.0327903 0.000862653 0.00202412 -0.0030462 0.0221282 0.00436999 0.00413179 0.00232394 -0.0171794 -0.015404 0.00117501 0.0225397 -0.00817712 -0.0299596 -0.02693 0.00192405 0.0209457 -0.0146801 -0.0376135 -0.0310636 0.00530945 0.0368822 0.0059361 -0.0189295 -0.0139607 -0.000814537 0.0153636 0.014342 0.00196475 0.00349343 0.0163334 0.0204202 -0.00271486 -0.0195091 -0.0121999 -0.00453962 0.0132638 -0.0195293 -0.0180277 0.00780372 0.00872596 0.00816005 -0.0037356 -0.0170753 -0.0067668 0.00900635 0.0138447 0.000922012 -0.00196089 -0.00862569 -0.00295618 0.00228965 0.00580139 0.00910397 -0.0027338 0.00922196 0.0132902 -0.00209208 0.005382 0.0127144 0.0195794 0.0108582 0.0132665 0.0317583 0.0333758 0.0239504 0.0155763 0.014407 0.0486857 0.0321887 0.00880885 0.0127868 -0.0144026 0.0168916 0.0204758 0.0098878 -0.00117544 -0.00881114 -0.00582181 0.00161491 -0.00203274 -0.00347644 0.00180764 0.0277462 0.0112358 -0.0212863 -0.0220622 0.0276127 0.0787107 0.0416056 -0.0216514 -0.0329334 0.0148382 0.0794159 0.0595237 -0.0109863 -0.0289699 -0.0110411 0.0114208 0.0220166 -0.00165346 -0.0188181 -0.00378325 -0.0231839 -0.0185893 -0.0144885 -0.00810932 0.00326837 0.0259313 0.0410623 0.0147692 -0.00267767 -0.0143438 0.0397602 0.0657402 0.030972 0.00820731 -0.00979361 0.0314198 0.0663992 0.0433615 0.0149613 -0.0183506 -0.0157601 0.00464264 0.00924897 0.0046562 -0.017108 -0.023207 -0.0107921 -0.0131475 -0.0221199 1.93945e-05 0.00943393 -0.0109873 -0.00682289 -0.00110311 0.003289 0.000959394 0.0192703 0.00878486 0.00074588 -0.00645569 0.0129135 0.0206106 0.0200875 0.0225935 -0.0214806 0.00249858 0.00450773 0.00565582 0.00927191 -0.0161101 -0.00397965 -0.000650945 0.00920326 0.0199723 -0.0146301 -0.0111435 -0.0127969 -0.0161115 0.00710208 -0.0301465 -0.0142156 -0.000260949 0.000105031 0.0111336 -0.0175744 -0.00211993 0.00560359 0.0014889 0.0125439 -0.0139031 -0.00719191 0.009646 0.00146536 0.00623201 -0.00117526 0.00368058 0.00615771 -0.00490112 -0.00252551 -0.0376771 -0.00194107 0.0185093 -0.000358552 -0.00828287 -0.0211289 0.00131649 0.00769732 -0.00582768 -0.0152005 -0.00124864 4.45351e-05 -0.019305 -0.0171099 -0.00725766 0.00190376 -0.0096873 -0.0319098 -0.0360555 -0.0265491 -0.0177861 -0.012025 -0.018872 -0.0239595 -0.0148431 -0.0113433 -0.0314482 -0.0455584 -0.0242045 -0.00649389 -0.0022545 -0.0261748 -0.0495088 -0.0315896 -0.0126414 -0.000975765 -0.0120919 -0.0400705 -0.0360283 -0.0142864 -0.0126712 0.0073972 -0.00468467 -0.0110295 -0.00983957 -0.0117941 -0.0181581 -0.00692761 0.00159992 -0.0046865 0.0206374 0.0504119 0.0153068 0.00169339 -8.04408e-05 0.045214 0.0616235 0.00270424 -0.00561297 -0.00364854 0.0410378 0.0544408 0.0120463 0.00379276 0.00860078 0.0190655 0.0215205 0.0205068 0.000306651 0.00948983 0.00677415 0.00305275 0.00294848 0.00112971 0.00910049 -0.00107824 -0.00764804 -0.0152909 -0.00855226 -0.000897001 0.00142017 -0.00337683 -0.0095125 -0.0152791 -0.00753803 0.0154549 0.0109605 -0.00120193 -0.0182377 -0.00216818 0.0194464 0.0119027 0.00876157 -0.0011857 -0.00694645 0.0065774 0.00452833 0.00168057 0.00700525 0.00857358 0.0076989 -0.0189277 -0.00327793 0.006132 0.0197089 -0.0319099 -0.0518539 -0.0270856 -0.00292594 0.0219658 -0.0355779 -0.0791926 -0.0473717 -0.00796732 0.0208145 0.00208957 -0.0276105 -0.026029 -0.00732401 0.0184437 0.01909 0.0151799 0.0154169 0.0224208 0.0272675 0.00374584 -0.00978304 -0.00717603 -0.00466231 -0.00519604 -0.0222582 -0.0139666 -0.0102149 -0.00796135 -0.0109476 -0.0220453 -0.0187125 -0.00489854 -0.000782624 -0.00848494 -0.0175502 -0.026214 -0.018104 -0.0132189 -0.0134947 0.00376478 -0.00270437 -0.00208637 -0.00599241 -0.0142722 -0.0192138 -0.020225 -0.0263842 -0.0154643 -0.00660778 -0.0289495 -0.0302007 -0.0340717 -0.0182487 -0.00818579 -0.0229416 -0.0361423 -0.0322259 -0.0214329 -0.0159413 -0.00636693 -0.0136181 -0.0126081 -0.0220517 -0.0162361 0.00378279 0.0129713 0.0126945 0.00168356 0.00385446 -0.00540761 0.0385249 0.0389329 0.0190276 0.00733091 0.0191541 0.0373795 0.0330153 0.00513322 0.00328008 0.0348686 0.0485523 0.0265236 -0.00225413 0.00528101 0.00294188 0.0153757 0.0245662 0.00707024 -0.00402853 -0.00545064 -0.020557 -0.005384 -0.00592044 -0.00154564 -0.0277029 -0.0263138 -0.0602688 -0.0517056 -0.0408134 -0.0150689 -0.0280006 -0.0860154 -0.0789118 -0.039745 -0.000699364 -0.0134922 -0.0832894 -0.0915529 -0.0328839 -0.0228038 -0.0213396 -0.0353887 -0.0444143 -0.036662 -0.0240524 -0.0140317 -0.0074081 -0.00755886 -0.00847729 0.0285998 0.0590363 0.057207 0.013658 -0.0132602 0.0305262 0.0852282 0.0839966 0.0227348 -0.00714682 0.0280325 0.0850788 0.0864386 0.0298437 -0.0155283 -0.0101291 0.0161437 0.0400343 0.0105305 -0.0207197 -0.01763 -0.0189578 -0.00614623 -0.0127182 -0.0145505 -0.00532822 -0.00918241 -0.0199697 -0.0158916 -0.00478843 -0.00871565 -0.0265775 -0.026544 -0.0132834 -0.000523241 -0.00735502 -0.0161838 -0.0162759 -0.0138836 -0.00113353 0.00667821 0.00625604 0.00718135 0.00369926 0.00800765 0.0157456 0.0240409 0.0190494 0.0169512 0.021933 -0.00303194 -0.000343678 0.0217877 0.0204558 0.00817105 -0.0139754 0.00481978 0.0217252 0.0172319 0.00778863 -0.0151991 0.0112702 0.0149266 0.00265051 0.0176177 -0.0125 0.00341205 0.0215381 -0.00304375 -0.00336848 -0.0101797 -0.00875461 0.0121678 0.00309773 -0.000231577 -0.00935518 0.00787013 -0.000936169 -0.0196654 -0.0280967 0.000375177 0.00612398 -0.0281905 -0.035744 -0.0368597 0.00711009 -0.00517951 -0.0365529 -0.0478779 -0.0374143 -0.00596808 -0.0382264 -0.0453383 -0.0302696 -0.0231758 -0.00119115 -0.0203665 -0.0121976 -0.0137435 -0.0196164 0.0176858 -0.0117452 -0.0156842 -0.000159539 0.0025781 0.00625693 -0.0312449 -0.00721891 0.0143777 0.0118068 0.0128328 -0.0126293 -0.0316615 -0.00538733 -2.57174e-05 0.007939 -0.00334193 -0.00957468 -0.00430999 -0.00959115 0.000397559 0.0114837 0.0207633 0.0138614 0.0101596 0.00189245 0.00441193 0.00597652 0.000880003 0.00626762 0.016365 0.0204183 0.00844848 -0.0183621 -0.0150736 0.00659483 0.00908681 0.0208759 -0.00525822 -0.00806373 0.00692497 0.00230306 0.00587883 -0.0127462 -0.0107794 -0.00580848 0.00205928 0.00164109 -0.00387352 0.000764235 0.00993239 -0.000135553 -0.00157621 -0.0214123 -0.0101959 -0.00420445 -0.00159555 0.0168789 -0.00602869 -0.00951504 0.00723898 -0.00170159 0.0247532 0.0015695 0.00936495 0.017153 0.008757 0.00327691 -0.0308214 0.00263444 0.00197988 0.00428843 -0.00763202 -0.0359633 -0.00916594 -0.00295721 -0.000454926 -0.0184498 -0.0185864 -0.00123431 0.00588074 -0.0162295 -0.0302752 0.00877951 -0.00847615 -0.00412435 -0.0384181 0.026055 0.0578294 -0.00988167 -0.00778839 -0.0173667 0.0509695 0.0396293 -0.0313152 -0.0143955 0.00218371 0.0295925 -0.0113521 -0.0177882 -0.025461 -0.00715133 0.00205508 0.0110111 0.0106541 -0.0323133 -0.0197371 -0.0133024 0.00547135 0.00636849 -0.0247032 -0.00748134 -0.0120882 -0.00487109 -0.00710544 -0.0101369 0.0141049 -0.00496689 -0.0142367 -0.0192874 -0.00982816 0.00124622 -0.0138522 -0.0187634 -0.0200004 -0.000827503 -0.00418829 0.0184079 0.0247961 0.010278 -0.0147471 -0.0170068 0.0341137 0.0614207 0.0194527 -0.02373 -0.0354836 0.0387302 0.0672047 0.0269622 -0.0162936 -0.033469 0.01653 0.0311921 0.0181817 0.00783945 -0.00940296 0.0164809 0.0202509 0.0201975 0.0134999 0.0122671 -0.0137914 -0.0204925 -0.000658956 -0.00395798 -0.0151365 -0.0287472 -0.0291867 -0.00368814 -0.0174717 -0.0281259 -0.0316216 -0.0315741 -0.00439966 -0.0131281 -0.0176556 -0.0235466 -0.0295646 0.00212267 -0.022204 -0.0162933 -0.00309922 -0.00426989 0.0194891 0.0028141 -0.00296289 -0.0177408 -0.00348782 0.0092084 0.00372367 -0.00921122 -0.0398111 -0.00999517 0.0174264 0.000617229 -0.0351648 -0.0456813 0.00336731 0.0219422 -0.00531383 -0.0279204 -0.0210257 0.00801259 0.0191617 -0.00562589 -0.0150108 -0.00963218 0.00814929 0.0184714 0.0267383 0.0308796 0.0508976 0.0026609 -0.0191031 0.034094 0.0468813 0.0890112 0.0431861 -0.0379407 0.0191826 0.0279462 0.0864287 0.0389938 -0.0356436 0.0138465 0.0142535 0.0391247 0.00122309 -0.0200418 0.0122662 0.0146319 0.0306772 0.00317345 0.00234501 0.00396693 0.00903442 0.0122153 0.0112691 0.0104109 0.00736873 0.0061187 0.0188748 0.00336682 0.00923064 0.00545732 0.0123747 0.0391222 0.00595645 0.0157462 0.00593322 0.0117601 0.0243999 0.000876086 0.0141496 -0.00240734 0.0122149 0.0123033 -0.00112344 0.0122364 0.00336842 -0.0158045 -0.0222864 -0.011591 -0.00357101 0.0229571 0.0104936 -0.00687682 -0.00575673 -0.0172756 0.0360097 0.0241178 0.0153216 0.0144156 -0.0262358 0.0341226 0.022071 0.0186221 -0.00215561 -0.0390696 0.0104929 0.0011897 -0.00862843 -0.0311967 -0.0310849 -0.0141619 -0.00249416 -0.00548827 -0.00327547 -0.00152631 -0.014861 -0.0119426 -0.0126995 0.00188624 0.00275607 -0.0150271 -0.0230061 -0.0161177 0.0152452 0.013532 -0.0121965 -0.0118169 0.00899708 0.0133666 0.00979732 -0.00806341 0.000677837 0.00539045 0.00747396 0.00455933 0.0122057 0.0167976 0.0123358 -0.00567651 -0.0136306 0.00856892 0.027625 0.0399949 0.00577531 -0.0244657 -0.00123575 -0.00180337 0.0237592 0.00449373 -0.013705 -0.00593017 -0.00206258 -0.00226183 -0.00879103 -0.00673497 -0.0149648 -0.00150336 0.0159623 0.0113741 0.0144311 -0.0203916 -0.0292211 -0.0372702 -0.0221202 -0.00372097 -0.0229244 -0.0358534 -0.0323732 -0.0376787 -0.0234624 -0.0267137 -0.0279685 -0.031601 -0.0497941 -0.0334378 -0.0188865 -0.0194122 -0.0340413 -0.0521033 -0.0173222 -0.0149596 -0.0208539 -0.0294132 -0.0306144 -0.00844185 -0.0114724 -0.0229711 -0.0265755 0.00161279 0.0130224 -0.016668 -0.0298672 -0.0383904 -0.0163222 0.0121418 -0.013421 -0.0390289 -0.041517 -0.0239216 0.0104799 -0.00696103 -0.0193234 -0.0327819 -0.0272072 0.00767063 -0.00439831 -0.00227934 -0.020114 -0.0158505 0.00881346 0.00397972 0.00553129 0.00425432 -0.00640554 0.00313044 0.00455407 0.00764563 0.0239126 -0.00183479 -0.00399909 0.00491206 0.00280379 0.0208135 0.00281938 -0.00260251 0.00619663 0.0155243 0.0169842 -0.00597339 -0.00160626 0.00599961 0.0112602 0.0138101 -0.00356574 0.0105795 -0.00765049 -0.00457302 -0.00653291 0.00465076 0.0211031 -0.0160107 -0.0112883 -0.0156355 -0.000850022 0.016872 -0.0212516 -0.0176995 -0.017836 -0.00350668 0.0260684 -0.0206975 -0.0190603 -0.0143192 -0.00403913 0.020211 -0.0234807 -0.0159725 -0.0101215 -0.00214285 0.0168045 -0.00834948 -0.00509551 0.00908383 0.029053 0.0195508 -0.00872659 -0.0135098 0.00247912 0.0381324 0.0340108 -0.012364 -0.0282075 -0.0159681 0.0261262 0.0399465 -0.000137098 -0.019599 -0.0189325 0.0142084 0.0333153 -0.000594968 -0.00694252 0.0019705 0.024328 0.0434984 -0.00881298 0.00613739 0.00636317 0.000996234 -0.0111441 -0.00595681 0.00397728 0.0151605 -0.00101905 -0.0115961 -0.0183078 -0.0182076 -0.0124235 -0.00959886 -0.013866 -0.0139814 -0.0285357 -0.0320345 -0.0224313 -0.00649797 -0.0135516 -0.0163417 -0.0150848 0.00341532 0.00812294 0.0119429 0.000559973 0.00244593 0.0162755 0.0212829 -0.0106866 -0.0381647 0.0314558 0.0490389 0.0167241 -0.0205433 -0.0291127 0.0973929 0.092833 0.0106731 -0.0169059 0.0212805 0.093268 0.0664767 -0.0172215 -0.00463728 0.0164193 0.0563278 -0.000851948 -0.0175864 -0.00448132 -0.00936331 -0.0167778 -0.0212167 0.000307506 -0.00361324 -0.0151622 -0.0285165 -0.0290646 -0.0125945 -0.0193501 -0.0305317 -0.0349703 -0.0275032 -0.0133437 -0.00969272 -0.0144617 -0.025106 -0.0224948 -0.00830637 -0.00119191 -0.00398467 -0.020255 -0.023956 -0.00263555 0.000667356 0.00658872 0.015201 0.00794154 0.000510678 0.00601457 0.0196909 0.0378778 0.00954269 -0.0142106 0.00764097 0.0184005 0.0435617 0.013428 -0.0194308 0.00712249 0.00263151 0.0208251 -0.0011447 -0.0135218 0.00904218 0.00333948 0.0174619 0.00334397 0.00167279 0.0118711 0.0124959 0.00749407 -0.00527771 0.00845565 -0.00612528 -0.0107894 0.00727036 -0.00271519 -0.004775 -0.00597814 0.011962 0.056893 0.02321 -0.0221547 0.0175816 0.0479671 0.0602325 -0.00578269 -0.0260842 0.00260088 0.0162432 0.014769 -0.0162797 -0.0151553 -0.00545586 -0.023373 -0.0253907 -0.0169332 -0.00824805 0.00835215 -0.0024669 -0.0068823 -0.0198947 -0.0148934 0.0213071 0.00592474 0.00267062 -0.0235478 -0.022865 0.0138766 0.00114862 -0.00769511 -0.0278505 -0.0194756 0.000923276 -0.0067023 -0.0139735 -0.0219257 -0.0135788 -0.0102246 0.0176189 -0.000945922 -0.0157487 -0.0224792 0.00260867 0.0287293 0.00627292 -0.0229652 -0.0369323 -0.00606148 0.00754901 -0.0194398 -0.0328006 -0.0343774 -0.0214132 -0.00936062 -0.0208252 -0.0333521 -0.0237722 -0.026869 -0.0141133 -0.0104932 -0.00509848 -0.00828871 0.00748296 0.000793276 -0.00533855 -0.00497729 -0.00342833 0.00298841 -0.00669148 -0.00853465 -0.000471855 -0.00642329 2.23024e-05 -0.0123207 -0.00580659 0.00891144 -0.00429956 0.000682493 -0.00515365 -0.000218234 0.000310769 -0.00919352 0.00757883 0.00297005 0.00346506 -0.00399433 -0.00684099 0.0011609 0.0110884 0.00801028 0.00866395 0.00772968 -0.00584343 -0.0061961 -0.00830338 -0.0100465 -0.00366115 -0.00900123 0.000578436 -0.00438717 -0.0128237 -0.0209133 0.00106443 0.0331552 0.0295537 -0.00933836 -0.0331365 0.0135745 0.0267224 0.0118072 -0.0255658 -0.0239175 0.00807371 0.0132782 0.00186835 -0.0116295 0.00329722 0.0253874 0.0356684 0.0301001 -0.0184488 -0.0171997 0.0150163 0.0124694 0.0104138 -0.0216396 -0.0173418 0.00140663 -0.00953773 -0.0181799 -0.0280366 -0.0123422 0.000107548 0.00125077 -0.00785029 -0.010905 0.00992066 -0.00893673 -0.00486027 0.00443795 0.00627991 0.0137542 -0.025897 -0.0158253 0.0303882 0.0371458 0.01548 -0.0304812 -0.0228901 0.0658178 0.0768924 0.0194719 -0.0244374 -0.00517399 0.0619626 0.0597364 0.00269085 -0.012303 0.00764393 0.0389321 0.00949753 -0.0092947 -0.0153661 -0.00887748 -0.000774653 -0.00526524 -0.00877917 -0.0132672 -0.0152332 0.0155213 0.0178846 -0.0247335 -0.00411069 -0.0201669 0.00526816 0.0173647 -0.017457 -0.00273571 -0.00640538 -0.0162746 -0.0159832 -0.0210257 -0.00423025 -0.00203702 -0.00997255 -0.0113886 -0.00779275 -0.00272329 -0.00522521 -0.0148813 -0.00109906 0.0038542 0.000441725 -0.0116971 -0.0339714 -0.0119323 0.00887576 0.00727514 -0.00261828 -0.027111 -0.0221939 0.00756097 0.00575919 0.00166422 -0.0176295 -0.0147139 0.00763669 -0.00592601 0.00187868 -0.0154281 -0.00675269 0.0118581 -0.000207915 -0.0211171 -0.021775 -0.0172443 0.00606037 -0.00398923 -0.0338828 -0.000762072 -0.00647696 0.00461294 -0.0107831 -0.0375355 0.0159399 0.0105256 0.00218507 -0.0154061 -0.02041 0.0044661 -0.00900418 -0.0100649 -0.0131359 -0.0130026 -0.00102327 -0.0190742 -0.000317706 0.00567328 0.00235325 0.00307061 0.00317391 -0.00866575 0.0118328 0.0248456 0.0252014 0.0176967 -0.0262598 0.0147637 0.036225 0.0335214 0.0246858 -0.0301108 0.0049211 0.0203827 0.022317 0.00204912 -0.0318675 -0.00610761 -0.00408711 -0.00787719 -0.0148961 -0.0149161 0.00800387 -0.00210842 -0.0088228 0.00508109 -0.00444005 0.0127213 0.0102743 -0.0207208 -0.0137182 -0.00147807 0.0140988 -0.0132859 -0.0541585 -0.00518431 0.0148572 0.00212516 -0.0224331 -0.0293278 0.0049464 0.0126794 -0.00444625 -0.0112624 -0.0129589 0.00488038 0.00203234 0.00285502 0.0109624 0.00958515 -0.0137346 -0.0043573 0.00162704 0.0169273 0.0398184 0.00782619 -0.0104347 0.00333244 0.00633552 0.0360795 0.00519812 -0.0158702 0.00939706 0.0181595 0.023378 0.00106327 -0.00630923 -0.00565574 0.00615625 0.0187038 0.00383785 0.000615745 0.00814703 0.00890567 -0.0030111 -0.00440657 -0.00197638 -0.00329084 -0.0167937 -0.0284125 -0.010556 0.00203476 0.00105374 -0.00523046 -0.0158592 -0.0090054 0.00134785 0.0193775 0.0228766 0.00637333 -0.0168676 -0.000403583 0.00993387 0.0117676 -0.0064534 -0.0150495 0.000159104 -0.00472453 -0.00343099 -0.00912739 -0.00249678 -0.000985998 -0.00336401 0.0186179 0.0300444 -0.00955105 -0.00854337 -0.0147144 0.00633287 0.0451871 0.000386685 -0.00638838 -0.021376 -0.00713879 0.0194101 -0.0130859 -0.00276751 -0.0163616 -0.00346814 0.00891844 -0.00862832 0.00652868 0.00569129 0.0064669 -0.00197876 -0.0042901 0.00794287 -0.00375771 -0.00414183 0.0165872 -0.00809378 -0.00753263 -0.00133697 -0.00521733 0.0432004 -0.00374309 -0.0029659 3.85271e-06 0.00888704 0.0317633 -0.0228651 -0.00413631 0.00556587 0.00899596 0.0133481 -0.00945086 0.00445595 -0.000401353 0.0130022 0.00663402 0.00718683 0.0065606 0.000587777 -0.00576115 0.0341798 0.0108686 0.00192956 0.00549643 -0.00515856 0.0419244 0.0159879 0.00173842 0.0095882 0.00742319 0.0210226 -0.00093637 0.00118531 0.00451491 0.012712 0.0201789 0.000995233 0.0101094 -0.00758937 0.00266913 0.00118207 0.00175416 0.0137167 -0.00924585 -0.00360715 0.00706349 0.00377075 0.00703243 -0.0269093 -0.0331637 0.0140935 0.00976815 0.0119636 -0.0230987 -0.0158206 0.0157217 0.00325607 0.00782762 -0.0212994 -0.0024725 0.00871529 0.00751698 0.0107196 0.00672998 -0.00257197 -0.00451492 0.0043874 0.000697554 0.0102147 0.00892326 -0.00281121 -0.0042045 -0.0078868 0.0178235 0.0194697 -0.00120921 -0.00573884 -0.0058032 0.0120875 0.0119934 -0.00392125 -0.00789661 -0.00381977 0.00131308 -0.00434187 -0.0143402 -0.00651273 -0.0023664 -0.00681116 0.00197899 0.0030914 0.00577016 0.0179103 -0.00368479 -0.00532463 -0.00640568 -0.00611738 0.0245539 -0.00714725 -0.0143983 -0.023851 -0.00344019 0.03772 -0.00764116 -0.0109834 -0.01639 0.000710074 0.0333942 -0.00938495 -0.00103589 -0.00621147 0.00843863 0.0310472 0.00909189 0.00337067 0.00211884 0.00472454 0.00709308 -0.00292015 -0.00778639 -0.00345192 -0.00399218 -0.000387767 0.0138799 0.0191398 0.0404011 0.0115727 -0.0137769 0.0117898 0.0306391 0.0388444 -0.00483483 -0.013192 0.00567712 0.0148331 0.0146202 -0.00335418 0.00233418 0.0192878 0.00098624 -0.00473079 -0.0186529 -0.0240149 0.0308067 0.0169858 0.0308366 -0.0166478 -0.0517398 0.0377877 0.0255776 0.0542984 -0.00651118 -0.0774624 0.0314608 0.0265191 0.0365459 -0.0284449 -0.0603652 0.0146132 0.0159348 0.00476641 -0.0349706 -0.0460393 0.0180292 0.0264204 0.0125551 -0.0161202 -0.000802046 0.019979 0.0159495 0.00258899 -0.0192279 -0.0111923 0.00237731 -0.0153435 -0.00692912 -0.0123361 -0.0116132 0.0116588 0.0124438 0.0108672 -0.010047 0.00353898 0.00523581 0.00418915 0.00267903 -0.00461341 0.0101287 0.0064341 -0.00363075 0.00869875 0.00145591 0.00262605 0.0024832 -0.00796326 0.0105728 0.002011 -0.00359724 0.00688146 -0.00545792 0.0167815 0.00835952 -0.00665246 0.0147115 0.00408401 0.0212519 -0.00549518 -0.012228 0.0233619 0.0134359 0.0157653 -0.010458 -0.00677226 -0.00180244 -0.012643 -0.0163785 0.00386787 0.0245869 -0.0102338 -0.0331006 -0.0407437 -0.0154028 0.0135227 -0.00967269 -0.0279461 -0.0233499 0.00247027 0.0079299 -0.000246846 0.00476821 0.0242136 0.0330783 0.000502398 0.0150487 0.0142019 0.0191999 0.00879023 -0.00810114 -0.00492939 0.00214653 -0.0309927 -0.0353382 -0.0299121 0.00447421 0.00818564 -0.0325637 -0.0452723 -0.040911 0.00272342 0.00446783 -0.042578 -0.0569623 -0.0308773 -0.0195009 -0.0200043 -0.059921 -0.0452954 -0.0218111 -0.0304386 -0.0283188 -0.0329416 -0.0138648 -0.0134218 -0.0233049 -0.0107384 -0.0145626 -0.00450973 -0.0242631 -0.0207103 -0.011294 -0.0219311 -0.0230868 -0.0361687 -0.00703851 0.00376107 -0.0202354 -0.0465808 -0.0511937 0.00310916 0.00818714 -0.0204469 -0.0525789 -0.0444497 0.000774016 -0.00556999 -0.0288655 -0.0341285 -0.032927 -0.0392909 0.0066305 0.00496225 -0.0243606 -0.00497885 -0.0598634 0.025982 0.0187347 -0.0110566 0.00405467 -0.0211813 -0.0139643 -0.00906177 -0.0084738 -0.00812911 0.0142594 0.0142035 0.00332871 -0.00131737 0.00131102 0.0242446 0.012347 -0.00378809 0.00565574 0.00638268 -0.0211456 -0.00789664 -0.0103051 -0.0303484 -0.0303353 0.0132625 -0.0105992 -0.00541644 -0.0215254 -0.0291798 -0.00721099 -0.0102663 -0.0133034 -0.00814183 -0.0101836 0.018096 0.00540473 0.0127402 0.0147593 0.0176145 0.017694 0.00585808 -0.00348841 0.00709749 0.00819323 -0.0148972 0.102125 0.0646076 -0.0057847 0.0150669 -0.0411264 0.0211876 0.00711027 0.0173982 0.00981307 -0.0497989 -0.106729 -0.0304298 0.000148798 -0.0181626 -0.0135809 -0.0221926 0.0144306 0.009725 -0.00449729 -0.00611534 -0.0275083 -0.0161219 -0.00653514 -0.0172358 -0.026092 0.00651059 0.0174269 0.00622801 0.00669739 0.0258393 -0.00454115 -0.0047962 -0.000259056 -0.00165196 0.0295739 -0.0118815 -0.0336433 -0.00864553 -0.0104523 0.0213583 -0.00156458 -0.00823992 0.00494465 0.00853138 0.00593882 -0.0157564 -0.00948319 -0.00237133 0.00178196 0.0427572 0.00423698 -0.0239283 0.00618365 -0.00371761 0.0607574 0.0606603 0.00187476 0.00344856 -0.00813046 -0.00628919 -0.00206205 0.0101489 0.00146856 -0.0102369 -0.014919 -0.0168271 0.0131619 0.000118794 0.00304865 -0.0105535 -0.0144491 0.00691244 -0.00714238 6.55994e-05 -0.0251188 -0.0207849 -0.0158449 -0.0104355 0.0099945 -0.0113725 -0.0347034 -0.0158354 0.0123266 0.0184346 0.0235552 0.0126515 0.0145735 0.00435378 0.00372119 0.00188031 0.00362386 0.0137973 0.0151015 0.00741462 0.00427909 0.00256597 0.000586485 0.0137884 0.00353884 0.0278375 0.0336957 0.0471673 0.0144169 0.0175174 -0.033222 -0.00275719 0.0389863 0.0127137 0.0231368 -0.0128062 -0.0275093 -0.019054 0.00741569 -0.00694421 0.00613058 0.0173028 0.0177792 -0.00321082 -0.00683854 0.00397696 0.00197603 0.00238624 0.00701008 -0.00588164 0.0212688 0.0767679 0.0258893 -0.0143092 0.00626157 0.014412 0.157537 0.103036 -0.0130431 0.00253221 -0.0250878 -0.0362919 -0.0101035 -0.0154361 -0.00434353 -0.00414686 -0.0185584 0.00738196 0.000393534 -0.00107659 -0.0160192 -0.0286039 -0.00254789 0.00829339 0.00199023 -0.0259524 0.00577311 -0.00198598 -0.0125685 -0.0184771 0.0125656 -0.0125481 -0.0239306 0.00408105 -0.012312 0.0037822 -0.0265531 -0.00145259 0.025235 0.007728 0.0150978 0.0274883 0.0219644 0.0297552 0.0126337 0.0132135 0.0164502 0.00996017 0.0187082 0.0149166 -0.00215342 -0.0224021 -0.0365665 -0.0249187 -0.0253867 -0.00330973 -0.0263974 -0.0261024 -0.0149959 -0.0125002 0.0107279 0.0131693 0.015217 0.0150495 -0.00166833 0.00572041 -0.000494298 0.0139239 0.00819437 0.00352643 0.00254453 0.0036482 0.0249753 0.0144815 0.0029536 0.0231789 0.156047 0.148339 0.0545763 0.0526127 -0.0430708 0.0662157 0.0673418 0.032358 0.0359195 -0.0810165 -0.122536 -0.0928576 -0.0356336 -0.0293578 -0.0204787 -0.0716107 -0.0535043 -0.0185675 -0.0139583 -0.0165759 -0.0568588 -0.0660061 -0.0381671 -0.0362668 -0.0441911 0.0294104 -0.0133758 -0.00688379 0.0105802 0.00321938 0.0816637 -0.000883531 -0.0218937 -0.0123479 0.000597427 -0.02059 -0.0284243 -0.0149954 -0.0214087 0.00139063 -0.00256458 -0.00347727 -0.00107409 -0.00522408 -0.00511353 -0.00546575 -0.0023204 -0.00628343 0.0139579 0.00566349 0.0244483 0.00155694 -0.00916687 -0.0143806 -0.00849551 -0.00975759 -0.0274566 -0.00951032 0.00498451 0.00187961 -0.023112 -0.0236107 -0.00279437 -0.000746252 0.00834755 0.00531983 -0.000156278 0.00155584 -0.00156047 -0.00266365 -0.00540049 0.00220239 0.00764267 0.000735481 -0.00801825 0.00381633 0.0124335 0.00711281 -0.00610103 0.0405366 0.0253149 -0.0393673 -0.00115815 0.00172677 0.00610558 -0.0100495 -0.0457077 -0.0129225 0.00502776 0.00400387 -0.0148732 -0.00822715 -0.00369339 0.00731997 -0.000961208 -0.0070427 0.00201913 0.000349462 -0.00365399 -0.0455252 0.00116799 -0.0135108 0.00182097 0.0252514 0.0113 0.0537813 0.00486744 -0.0150151 -0.00074501 0.0149086 -0.0120852 -0.0091603 -0.000950952 0.00410729 0.0103135 -0.00242022 -0.00726407 0.000242458 0.00127715 0.0184624 0.00325146 -0.00843589 0.0023472 0.00486128 0.0388169 0.0605011 0.0450497 0.0270496 0.0181833 0.000555965 0.0112495 0.0142053 0.0123453 0.0028085 -0.0283848 -0.0448727 -0.0311297 -0.0141846 -0.0176307 0.0117226 -0.0181106 -0.0159232 -0.00326691 -0.00625794 0.00588444 -0.02 -0.0232372 -0.00306714 -0.00808249 0.00887362 -0.00419999 0.0228294 0.0114121 0.0110437 0.0408159 0.00754835 -0.0247765 -0.00540755 -0.0104983 0.00898908 -0.0100847 -0.0191216 -0.00284092 -0.00958017 0.00107841 -0.00650756 -0.00537855 0.00572193 -0.00218506 0.00183916 -0.00247658 -0.00286901 -0.00111864 -0.00561796 -0.0148534 -0.0254055 -0.0243944 -0.0113057 0.00940377 0.00638262 0.0174016 -0.00473082 -0.0293079 -0.00630866 0.0153179 0.0375212 0.0290574 0.00565094 0.0119803 0.00250491 0.0119948 0.0112615 0.00604215 -0.00134129 0.0233627 0.0129188 0.00238843 0.00179609 0.00290607 0.0826463 0.116602 -0.000223088 -0.00674315 0.0126407 -0.0108762 -0.0095449 -0.0345052 0.00814806 0.0205418 -0.0602875 -0.0828137 -0.0225617 -0.00568941 0.00629784 -0.0111178 -0.0162026 -0.00254711 0.00125531 0.00937487 -0.0144552 -0.0220649 -0.0131347 -0.0116839 -0.0235442 -0.0169849 -0.00472976 -0.00134055 -0.00817442 -0.00548796 0.00971482 0.0758989 0.0488241 -0.00459121 -0.00878334 0.0299719 0.0142408 0.0211384 0.00825175 0.00381192 0.0203771 0.00111689 0.00155219 -0.0134826 -0.0184203 -0.0112865 -0.0139754 -0.00775839 0.00205627 -0.00577055 -0.0101431 0.0116698 0.0377476 0.0042845 0.000962005 -0.0174987 -0.0245404 -0.00792319 -0.00603723 4.65649e-05 -0.0119885 -0.0120371 -0.0106909 0.00119724 0.00158802 -0.00371402 -0.00871728 -0.0142837 -0.0078923 -0.00944965 -0.016757 -0.012818 0.0023827 -0.000564095 -0.0114734 -0.0217678 0.0275167 0.006109 -0.0122511 0.0052213 -0.0518637 -0.0560042 -0.0281633 -0.00258669 0.00967859 -0.0130827 -0.0268686 -0.00968122 -0.0011361 -0.010003 -0.00341201 -0.00262243 -0.0114448 -0.0120704 -0.00718862 0.0139273 0.00341109 -0.00818567 -0.00301099 -0.00731594 -0.0170149 -0.0252096 -3.51071e-05 0.00733759 0.00684542 -0.0103818 -0.0357606 -0.0342764 -0.0137779 -0.00870959 -0.0261444 -0.0351604 -0.0147231 -0.024534 -0.0229044 -0.0255207 -0.0331689 -0.0145071 -0.0208425 -0.0166015 -0.00634525 -0.0055391 0.00728072 -0.00747632 -0.00780146 0.0153113 0.0527956 0.0477972 0.000949308 0.0257371 -0.0559352 0.139669 0.133725 0.0137218 0.0177139 -0.0505987 -0.00964269 0.0064448 0.0203613 0.00333534 -0.0355765 -0.0252593 0.00667626 0.0178928 0.00312628 -0.0144709 -0.0103819 -0.014131 -0.0124925 -0.00843648 0.0287771 0.0505384 0.0400735 0.0207846 0.0245188 0.00935535 0.015991 0.0161091 0.0172995 0.0155082 -0.00949001 -0.0183722 -0.0171195 -0.00591944 -0.00508814 -0.00747236 -0.0228459 -0.0153282 -0.00604046 -0.00533425 -0.00673957 -0.0189898 -0.0123424 -0.00981753 -0.013592 -0.0486978 0.0223059 0.00208845 -0.0320686 -0.0118173 -0.0235471 -0.0192684 -0.00168703 -0.0173118 -0.0207128 0.00593913 -0.0381792 -0.0447474 -9.1424e-05 -0.0151813 0.0100199 -0.00630222 -0.00798499 0.00781401 -0.00405805 0.00555311 -0.00776475 -0.0086076 -0.00778788 -0.0182334 -0.0102245 -0.0208012 -0.0128503 -0.00852802 0.0164563 -0.0322925 0.107101 0.101838 -0.0056518 0.00605585 -0.00735659 0.0393316 0.0324247 -0.000488179 0.0131065 0.0199917 0.00390924 0.0208907 0.0115861 -0.00465641 -0.00607909 0.00274583 -0.00238483 0.00996622 0.00490442 0.0430004 0.043812 0.0128639 0.0145124 0.0145928 0.0413407 0.0386104 -0.00997662 0.0152525 0.0105063 -0.0360014 -0.0407911 -0.0144919 -0.0014989 0.00324656 -0.0168782 -0.0214323 0.00562078 -0.0014734 0.016493 -0.0151094 -0.0217228 -0.00940595 0.00242169 0.00786133 -0.000397596 0.110458 0.055428 0.00873621 0.0277443 0.0215306 0.0836749 0.0358007 -0.0151006 -0.0123504 0.0234229 -0.0623954 -0.0552542 -0.0123607 -0.0303311 0.00544279 -0.0307814 -0.011121 0.000928141 -0.0156639 -0.0123251 -0.0363186 -0.0209628 -0.0125715 -0.0167976 0.00109209 0.0505014 0.102351 0.0146006 0.00623031 0.0451886 -0.0176913 -0.0237978 0.00579402 0.00480893 -0.000344155 -0.0218981 -0.0449706 -0.0115474 -0.00641387 -0.00659035 -0.0193858 -0.0293799 -0.00541244 -0.00785255 -0.0110798 -0.0281621 -0.0189542 -0.0128715 -0.0106025 0.0843963 0.119871 0.0034095 0.000573417 0.0156206 0.0398349 0.0636725 -0.0405872 -0.0175397 0.00872398 -0.0303963 -0.0704007 -0.0480879 -0.0150588 -0.00663492 -0.00426119 -0.039907 -0.0188942 -0.00818239 0.00096187 -0.0278544 -0.0353566 -0.0134122 -0.0186736 -0.0269764 -0.0143575 -0.0164604 -0.0294106 -0.0198637 -0.0136541 -0.000308956 -0.0171238 -0.0283299 -0.0131082 -0.00373913 0.00155757 0.00261042 -0.00472359 -0.00621398 -0.00664762 0.0252812 0.0184715 0.00835157 -0.00266258 0.00109637 0.0159911 0.0158326 0.0171484 0.0175835 0.00617432 0.0168758 0.00282299 0.0812324 0.0134354 0.0107385 -0.05495 0.0176592 0.10447 0.020483 0.0309059 -0.026608 -0.0279262 -0.0484163 0.00218389 0.0143281 -0.0302904 -0.00380282 0.00674331 0.00776429 0.00484447 -0.0202628 -0.0214195 -0.0125811 0.00105884 0.00963494 -0.0507739 0.0418609 0.0120766 -0.0117655 0.00387081 0.00968912 0.0337966 -0.0157597 -0.0207583 0.00762552 0.00604353 -0.0211451 -0.0196162 -0.00962187 -8.85315e-05 0.00429583 0.00645115 0.00703106 -0.00254746 -0.00397761 -0.00414616 -0.0112305 -0.00576271 0.00736998 0.0083733 -0.0248111 -0.0276251 0.0169917 0.00423338 0.00856412 0.0368917 -0.0249751 -0.0393911 -0.00922478 -0.00642087 0.0314288 -0.0133313 -0.0456868 -0.0210805 -0.0207971 0.0215502 0.0120041 -0.00932818 -0.0072983 -0.0084747 0.0175198 0.000338891 -0.00355389 -0.00243557 -0.01182 0.0221893 0.038393 0.0152114 0.0186998 0.00843979 0.0665308 0.0149734 -0.0410336 0.0160043 -0.00820133 -0.0223507 -0.0714384 -0.0469217 -0.0014264 -0.00454561 -0.016928 -0.0183092 -0.0153367 -0.000461848 0.00108028 0.00456146 -0.0137034 -0.012589 -0.00914949 0.011649 0.070471 0.0760937 0.0386048 -0.00850964 0.00774855 -0.0130306 0.00591275 0.0449607 -0.00342823 0.00102273 -0.0335926 -0.064303 -0.0262851 0.00235257 -0.0110622 -0.0256985 -0.0189004 -0.00190548 -0.00117962 -0.0105247 -0.022889 -0.014876 -0.0163373 -0.0127141 -0.0164784 -0.0106571 0.0480418 0.0152906 0.0105892 -0.000312058 0.0292762 0.0229088 -0.0175742 0.0128209 -0.00734014 0.000847942 -0.0387144 -0.026212 0.0158789 -0.000998131 0.0130035 0.0100549 0.004064 0.00856576 0.0102713 -0.00288886 -0.00237936 0.00477834 0.00283932 -0.00235724 0.0742265 0.243166 0.126936 0.0324591 0.0485753 0.0377406 0.15317 0.0784755 0.0130745 0.0116622 -0.0760344 -0.120123 -0.0813299 -0.0218068 -0.0212808 -0.0206663 -0.0641927 -0.0518977 -0.0135299 -0.0116661 -0.0370367 -0.0762446 -0.0673908 -0.0324348 -0.0213007 -0.00675957 0.00709737 0.0189536 0.00912912 0.00753492 -0.0286551 -0.0112856 0.00303112 0.00855748 -0.00270647 -0.0272758 -0.0262315 -0.00785668 -0.0132441 -0.0127623 -0.00308499 -0.00474658 -0.00312141 -0.00584068 -0.00933249 0.00150864 0.0024551 0.000494376 0.000273491 0.00233997 -0.00898182 -0.0561843 -0.0633463 -0.0322042 -0.0109548 -0.03304 -0.0588735 -0.0381911 -0.0121304 -0.0118759 -0.0105737 0.0134545 0.0142916 0.0106467 -0.00904468 0.00401722 0.0289385 0.0369297 0.0155175 -0.00364165 0.00394777 0.0272082 0.0339152 0.00987095 0.0129873 -0.0305725 0.00475688 -0.00857787 -0.0235747 -0.00463665 -0.00356129 -0.0225088 -0.0244752 -0.00612827 -0.000830228 -0.00822308 0.006673 0.0124688 -0.00128309 -0.010903 -0.013851 0.000479954 -0.00158325 -0.00039191 -0.00883848 -0.0181144 -0.0221282 -0.00734072 -0.00255404 -0.0145678 0.0308514 0.0232655 0.02046 0.00115013 -0.00520848 0.0195424 -0.0120763 -0.0230954 0.00306464 0.000996274 -0.0238973 -0.0248586 -0.0180733 -0.0117792 -0.00724809 -0.0168348 -0.020623 -0.00914788 -0.0138736 -0.0123137 -0.00795594 0.00515262 0.0166711 -0.00559539 -0.00803882 -0.0267995 0.048905 0.0462848 -0.0133736 -0.00252533 -0.0380701 0.0210278 0.0448637 0.00544085 0.0080587 -0.0083755 -0.0175819 -0.00754936 -0.00377084 -0.0079707 -0.00202024 -0.00187891 -0.00163442 -0.0103554 -0.0024047 -0.00142745 -0.00280975 -0.00317952 -0.00147906 9.23234e-05 -0.0265407 -0.0715021 -0.0450637 -0.00784941 6.03592e-05 0.00212465 -0.0206347 0.00173795 0.0121409 0.007207 0.0112446 0.00821194 0.0131328 0.0068642 0.00189702 0.0126752 0.0210282 0.0216646 0.000262826 0.00104855 0.0168552 0.0215802 0.0234717 0.0049112 0.0107491 -0.0202574 -0.0224867 -0.0268048 -0.031982 -0.0199946 -0.0340381 -0.0251206 -0.00908183 -0.0031672 -0.00744156 0.00301556 0.0193862 0.0297946 0.0140163 -0.00569689 0.0115061 0.033061 0.0298318 0.00703011 0.00143022 -0.0034489 0.000331645 0.0131555 -0.00388713 -0.0138692 0.0104886 0.00196061 0.0193756 0.00864729 0.00461682 -0.0392642 -0.00348395 0.0349306 0.0250517 0.0226464 -0.0176405 -0.0250976 0.00771741 0.0193162 0.00822447 -0.00533193 -0.00543762 0.00915226 0.0222544 0.01815 0.00863093 0.00304792 0.00510115 0.00805652 0.00570206 -0.0149529 0.0318932 0.0750147 0.00356607 0.00293396 0.0245219 -0.0389218 -0.0219552 -0.00816398 -0.00895081 -0.000239899 -0.0656573 -0.0801575 -0.0259676 -0.0288082 -0.0203272 -0.0198472 -0.0258364 -0.00592032 -0.00405717 -0.00988156 -0.0150483 -0.028027 -0.0159596 -0.0118243 0.00645877 0.0036349 0.00439101 0.0173174 0.0124187 0.00922617 -0.00816036 -0.0120182 0.00594116 0.0159029 -0.00750543 -0.0188932 -0.0271906 -0.0184389 -0.00326044 0.00529567 -6.81439e-05 -0.004011 -0.00465501 -0.0061863 0.00344218 -0.00280752 -0.00520979 -0.00760311 -0.00334746 0.00285977 -0.00309617 0.0144677 0.0156288 0.00187215 -0.00339827 -0.0110837 0.00424525 0.0152886 0.0027987 0.00517909 -0.00477516 -0.0299414 0.0028068 -0.00138976 0.0100049 0.00699769 -0.0112426 -0.00238865 -0.0115494 0.0013011 0.0118189 -0.0148786 -0.0150488 -0.0181329 0.00393741 0.010997 -0.00215778 0.0136397 0.0300076 0.00590025 0.00211623 -0.0241231 -0.00500058 0.0235768 0.00420974 0.00301046 -0.0200977 -0.0272827 -0.000838205 0.00610988 0.0164292 0.00110344 -0.0206105 -0.0109095 0.00698395 0.00923023 0.0014637 -0.0151225 -0.0210736 -0.014977 -0.0124633 -0.0185305 -0.0144427 -0.0115888 -0.021255 -0.0346934 -0.0398047 -0.0241751 -0.0256443 -0.0188925 -0.028839 -0.0391755 -0.0342375 -0.0361286 -0.0125871 -0.0131028 -0.0230502 -0.0213381 -0.0193082 -0.0111464 -0.0127429 -0.0248267 -0.0268688 -0.0222479 -0.00654565 -0.0127361 0.0206663 0.0321715 0.0110121 -0.0118631 -0.0271954 -0.0124689 0.0162439 0.0244318 -0.00598061 -0.0231608 -0.038754 -0.000297824 0.0204932 0.0019839 -0.0061574 -0.0232707 -0.00271444 0.0154884 0.00402643 -0.00469311 -0.0141364 -0.00340675 0.0129214 0.035035 0.0359623 0.040187 0.0394496 0.0137122 0.00823882 0.00751131 0.0237938 0.0413763 0.0209964 -0.0132332 -0.0154305 -0.016725 0.0195842 0.019499 -0.00991722 -0.0100497 -0.00478914 0.00881567 0.00793625 -0.00198434 -0.00451506 -0.000130464 0.0103604 0.00912109 -0.00540879 -0.00137547 0.01103 0.0261291 0.0159383 -0.00305616 -0.00673662 0.00135393 0.0262691 0.0241629 -0.00455035 -0.0106834 -0.00866434 0.0201989 0.022091 -0.00263933 -0.00491218 0.000111375 0.0268002 0.0229425 -0.00527349 -0.0105725 0.00487158 0.0201113 0.0114547 0.00185965 0.00112933 0.0140941 0.0293236 0.0290074 -0.00489437 -0.0142196 -0.00712333 0.0245727 0.0343109 -0.00119945 -0.016679 -0.0331958 -0.00657838 0.0193537 0.00145626 -0.000491687 -0.0206863 -0.0185133 0.00644957 -0.00115801 -0.000110669 -0.0197513 -0.0196124 -0.00295437 -0.000851369 9.15095e-05 0.0199034 0.0222141 0.0243373 -0.000523503 -0.00286587 0.00481871 0.021709 0.0186636 -0.00378282 -0.00375417 -0.00429869 0.0199525 0.0184339 -0.00148605 0.00153359 -6.46385e-06 0.00900821 0.0190367 -0.00341708 0.00350223 0.000911741 0.00240699 0.0150932 -0.00241789 0.00471446 0.0074923 -0.0269248 -0.0857063 0.0101084 0.0114906 0.0203566 0.0221206 -0.0466457 0.0138376 0.011236 0.0142529 0.0190472 -0.0258166 0.0129939 0.0130099 0.0207585 0.01738 -0.0240913 0.00993534 0.0102563 0.0197997 0.0164082 -0.0211768 -0.00855941 -0.00444917 -0.0045821 0.00828198 0.0174711 -0.0112606 -0.0119122 -0.0190562 -0.00599297 0.0019815 -0.0178258 -0.0188678 -0.0260654 -0.0193658 -0.0134147 -0.0171317 -0.0160604 -0.00998204 -0.0103213 -0.00727715 -0.00967803 -0.0115786 -0.00689012 -0.00575535 -0.00764488 0.011328 0.0135253 0.0207908 0.0216417 0.0162872 -0.00328071 -0.00576503 0.00710486 0.0262028 0.0252253 -0.000342807 -0.00717024 -0.0192087 -0.0027554 0.00774211 0.00143907 -0.00270829 -0.00599358 -0.00555623 0.0047715 -0.00222774 -0.000870655 -0.00555576 -0.00478496 0.00119534 -0.0178988 -0.0180752 -0.0100823 -0.00402329 -0.0239156 -0.0132893 -0.0220133 -0.0200135 -0.0031762 -0.0171135 -0.0194675 -0.0178762 -0.029246 -0.0132415 -0.0126067 -0.0202691 -0.0140925 -0.0182166 -0.00648296 -0.00260093 -0.0112083 -0.0135815 -0.0122517 0.000791119 -0.00440246 -0.00644796 -0.00583226 0.0253782 0.0237681 0.00391112 -0.0169687 -0.0268874 -0.00893003 0.0282561 0.00363108 -0.012839 -0.0251337 -0.0378609 0.0116776 0.0155426 -0.0184524 -0.017197 -0.0238284 -0.00332425 0.020901 -0.0133174 -0.0158933 -0.0228445 -0.0126506 0.0145544 0.00656328 0.00713302 -0.000663869 3.95583e-05 0.0109931 -0.00256229 -0.00104429 -0.00017868 -0.00455115 -0.00209731 -0.00769941 -0.00917722 -0.0139814 -0.00396728 0.00369277 -0.00261949 -0.00111213 -0.00154401 -0.000215362 0.00551995 -0.00159963 -0.000887751 -0.0015036 -0.00427814 -0.00223266 -0.00199462 -0.00262532 0.00305284 -0.00202416 -0.0114109 -0.0132084 -0.0177973 -0.0183198 -0.00341218 -0.00117049 -0.0188983 -0.02055 -0.024757 -0.0115721 -0.00167109 -0.0139405 -0.0115394 -0.0179135 -0.00950138 -0.00411348 -0.0143624 -0.00705616 -0.0104616 -0.00684509 0.00186407 0.0213106 0.024845 0.0677156 0.0559377 -0.00390111 0.000260267 -0.00901852 0.0376519 0.0565264 0.0296552 -0.00762771 -0.028711 -0.0208425 0.0294108 0.0334763 -0.00745609 -0.0144878 -0.0147187 0.0138022 0.0216905 -0.00592561 -0.00518496 -0.00713711 0.0100794 0.0179433 0.0105287 0.0141242 0.0215543 0.017765 0.00200232 0.000932629 0.00426587 0.0143835 0.024181 0.00280068 -0.0121786 -0.0206212 -0.0201404 0.00467002 0.00609032 0.000249499 -0.00644665 -0.00885289 0.000620972 -0.00354457 -0.00179664 -0.00366292 9.88558e-05 0.000494105 0.00119478 0.00316922 -0.00663011 -0.00713561 0.0108182 0.0204071 -0.00250137 -0.0133836 -0.019001 -0.00324697 0.0171025 0.000149626 -0.00324284 -0.0237133 -0.0166063 0.00625668 0.00869548 0.010425 -0.00479378 -0.013775 -0.000284308 0.0079823 0.00757369 -0.000936782 -0.0180119 -0.00473672 -0.0148761 -0.0141947 -0.0123215 -0.00551562 -0.00250282 -0.0119123 -0.0240189 -0.0239494 -0.0225995 -0.00937751 -0.0142211 -0.0191839 -0.0252782 -0.00774524 -0.0014715 -0.00931823 -0.00803464 -0.0138312 -0.00210789 0.000429608 -0.010893 -0.0116002 -0.0216017 -0.00746649 -0.00669111 0.0199685 0.0260543 0.0490193 0.0522663 0.00572032 0.00149815 0.00271879 0.0354672 0.0577311 0.0240694 -0.0154293 -0.0296294 -0.0227777 0.031021 0.0219091 -0.01296 -0.0185437 -0.023091 0.0137054 0.0172991 -0.0153109 -0.0114905 -0.0173273 0.00576351 0.0145549 0.00281272 -0.00327021 -0.0102609 -0.000410452 0.00561707 -0.0104808 -0.0177057 -0.0249743 -0.0143932 -0.000555071 -0.00105798 -0.00219199 -0.0167379 -0.0137469 -0.0106943 0.00964633 0.01154 0.00854608 0.00211078 -0.00144781 0.0130017 0.0131056 0.00456679 -0.0021895 -0.00692561 0.00101092 0.000797572 0.0146432 0.0201264 0.00729203 -0.00321288 -0.00714384 -0.000377192 0.0154283 0.010985 -0.00456061 -0.00848134 -0.00387218 0.0104247 0.0156779 -0.00904834 -0.0132299 -0.0153882 -0.00586634 0.00352208 -0.00986359 -0.0156252 -0.017168 -0.00942746 -0.0017636 -0.00866115 -0.00435582 -0.0080675 0.001805 0.00611814 -0.00700864 -0.00235265 -0.014069 0.00111345 0.00938923 -0.00371366 -0.0102702 -0.0354911 -0.0234591 -0.00425814 -0.000860899 -0.00247401 -0.0101394 -0.0127264 -0.00156983 0.00285126 -3.48225e-05 0.00160764 -0.00335666 9.79253e-05 -0.00752291 -0.0132387 -0.00645837 -0.0120595 -0.0411736 -0.00145319 -0.0122296 -0.0109163 0.000474716 -0.0218008 -0.00147731 -0.014874 -0.017748 -0.00753705 -0.0143864 0.00108984 -0.00929939 -0.00925407 -0.00479097 -0.013343 0.00767883 0.00482815 0.005743 0.00721 -0.00734168 -0.00799503 -0.00616105 -0.0133439 -0.0208013 -0.0147264 -0.0160394 -0.0223638 -0.0225014 -0.0227645 -0.025544 -0.0111608 -0.0156401 -0.0220664 -0.0179435 -0.0201622 0.00321465 0.00173353 -0.00487475 -0.00944654 -0.0130179 0.00556967 0.00272194 -0.00385335 -0.00633986 -0.00925151 0.0125073 0.00764769 0.00991096 0.0143367 0.0231155 -0.0067436 -0.00744797 -0.0104606 0.00750177 0.0222248 -0.00750317 -0.0142224 -0.0299463 -0.0175884 0.00263803 -0.000152978 -0.00234368 -0.00217292 0.00288564 0.00882373 0.000756262 -0.00241704 -0.00884056 -0.00917775 -0.00128119 -0.00323591 -0.00539437 0.0262901 0.0312014 0.0157566 -0.00276165 -0.0129958 0.0141356 0.0343705 0.0236359 -0.00169085 -0.0168348 -0.0191907 0.0179264 0.034178 0.00718604 -0.0023342 -0.0142247 0.00647219 0.0342071 0.00529537 0.00220988 -0.00346392 0.00806505 0.0276421 -0.00935877 -0.00585447 -0.000561693 -0.0049814 0.00447574 -0.0022183 -0.00229515 -0.00490062 -0.00230337 -0.00364271 0.00665167 0.00561235 -0.0184777 -0.0029514 0.0052266 0.00484675 0.0103125 -0.00259354 -0.0110959 0.00371319 -0.00473514 0.00364616 -0.00832418 -0.00605953 -0.000581928 0.00532416 0.00607463 0.0225287 0.0138747 -0.00944626 0.00393839 0.00165127 0.00329355 0.03032 0.00543144 0.00310326 0.00061539 -0.0109017 0.00975091 0.0132752 0.000366058 0.00581196 0.00116766 0.00614366 0.0157405 -0.00414978 -0.00165646 -0.00650452 -0.00437746 0.00476459 -0.00415364 -0.00347431 0.000353433 0.0121484 0.0155333 -0.00688845 -0.00726087 -0.0126332 0.00401923 0.0114221 -0.0174482 -0.0105953 -0.0244421 -0.00586321 0.00431069 -0.0135484 -0.0029327 -0.00742844 0.00155196 0.00637419 -0.00634093 -0.00211208 0.0016511 0.00486333 0.00516682 0.0177303 0.0240828 0.0258346 -0.00140041 -0.0755289 0.0326307 0.032177 0.034432 0.0267874 -0.0328624 0.0370019 0.0342511 0.0384999 0.030326 -0.0120286 0.0404887 0.0336549 0.0368573 0.0326 -0.012472 0.035646 0.0324805 0.0357064 0.0325861 -0.00894409 -0.00238605 -0.0010738 0.0106155 0.0135444 0.0131719 0.00291565 0.000593151 0.000484363 0.0232954 0.0133904 0.00207069 -0.00413345 -0.0161338 0.00477687 0.00995683 0.00139336 -0.00447582 -0.00590239 0.0077723 0.0161957 -4.40925e-05 -0.0126486 -0.00778305 0.00137178 0.00404844 -0.00060261 -0.00134258 0.00716306 0.00789611 0.0101206 -0.00568713 -0.0155681 -0.0147805 -0.00337437 0.00848799 0.00341957 0.00209704 -0.016204 -0.0124373 -0.000280412 0.00401291 0.00914617 0.00253023 -0.000979158 0.0029715 -0.00120839 0.00235304 -0.00196891 -0.00682827 -0.00324838 0.0141539 0.0133826 0.0277503 0.0208175 -0.00819146 0.00275933 -0.00866754 0.00886607 0.0359222 0.00828102 -0.0101199 -0.0230262 -0.0285191 0.00746883 0.00981836 -0.00184861 -0.00670036 -0.0111377 -0.000676361 0.00631059 0.00525821 -0.002636 -0.0132615 -0.0122476 -0.000947953 -0.00487801 -0.00939387 0.0151283 0.014086 0.00938369 -0.00320897 -0.0120259 0.00278113 0.0115719 0.00260431 0.00477584 -0.000975013 -0.0154366 0.00914863 0.00946979 0.00523574 0.00635745 -0.0177884 -0.000992757 0.00792045 0.000541127 2.92101e-05 -0.00981838 -0.0076483 0.00541691 -0.000762007 0.00632841 -0.0032955 0.0146605 0.027457 0.00232463 0.0021085 -0.0177797 0.00873254 0.0221134 0.00527324 0.00417151 -0.0239361 -0.010719 0.0106184 0.00543149 0.00571552 -0.00425664 -0.00764823 0.00242236 0.000604108 0.00462484 -0.000486565 -0.00185287 -0.00458018 0.00303762 -0.0013712 0.0196815 0.00728889 0.0114545 0.0022954 -0.00528446 0.0127397 0.0200145 0.00455011 0.00466843 0.00149008 -0.0116071 0.0170971 0.0125746 -0.000571822 0.00945874 -0.00307285 0.00541194 0.0153655 -0.0060876 0.00673804 -0.00583603 -0.00520711 0.00923066 -0.00960049 -0.00537636 0.0094458 0.028134 0.0356134 -0.0237986 -0.0269712 -0.0238214 0.010516 0.0250659 -0.022057 -0.0282751 -0.039786 -0.0189258 0.012997 -0.0120106 -0.0122578 -0.0225712 -0.0213582 0.0107811 -0.0130805 -0.0103918 -0.0219558 -0.0190817 0.00694976 0.0115227 0.0141494 0.00930672 -0.0165027 -0.0333247 0.00723408 0.00314865 0.0011282 -0.00121124 -0.0311208 0.0129155 0.00276612 -0.00204903 0.00443215 -0.0146082 0.0133162 0.00385048 -0.00139404 0.00187453 -0.0117517 0.0118667 0.0016224 0.000331712 0.00245762 -0.0105042 -0.00352824 -0.00381231 0.00624848 0.024317 0.0290637 -0.010591 -0.0145456 -0.00868562 0.00747005 0.018744 -0.0149778 -0.0123115 -0.0147511 -0.00547009 0.0124458 -0.0156267 -0.00645018 -0.00707904 -0.00342322 0.0106778 -0.0180131 -0.00791894 -0.00875185 -0.00919383 0.00698859 0.0126863 0.0167997 0.0165341 0.0240457 0.0185575 -0.00707737 -0.0121804 -0.0147992 0.0117566 0.0145869 -0.00608249 -0.00655215 -0.0250758 -0.0250978 -0.00908055 -0.000749257 -0.000592954 -0.00865545 -0.00581502 0.00202985 0.00243722 -0.00470205 -0.0155297 -0.0208291 -0.0139784 -0.00639946 -0.00538827 0.0127926 0.000644902 -0.0458848 0.00544525 -0.00306871 -0.00207396 0.0114551 -0.01831 0.0114261 -0.00099485 -0.0130253 -0.0023286 -0.00827419 0.0134463 0.000548499 -0.0128406 -0.00923597 -0.0196633 0.0212499 0.00728264 -0.00764821 -0.00766965 -0.0173516 0.0142668 0.00512822 0.00262926 0.0135938 0.0158294 -0.000393971 -0.0136023 -0.0152826 0.000342946 0.00897956 -0.0108833 -0.0186121 -0.0166672 0.00111945 0.00937251 -0.00521862 -0.00664094 -0.00311868 0.00120344 -0.000421897 0.00196441 -0.00175099 -0.00352073 -0.00153315 -0.0028102 0.0150913 0.00955719 0.0143481 0.0314213 0.0211718 -0.00799353 -0.0114263 -0.0106999 0.0158527 0.0137438 -0.0179062 -0.0163634 -0.0196105 -0.00247653 0.00553619 -0.0166053 -0.0118941 -0.0106788 -0.00142885 0.00887094 -0.00971647 -0.00576725 -0.007354 0.00167858 0.00825406 -0.00269711 -0.0103105 -0.00759839 -0.0091104 -0.0172685 -0.00493103 -0.0259138 -0.0266996 -0.018457 -0.0115387 -0.00268295 -0.0208135 -0.0332652 -0.0211261 -0.00616241 0.000239634 -0.0106048 -0.00719416 -0.00129695 0.00311075 -0.00491558 -0.0154528 -0.00851906 -0.00552552 -0.0148098 0.0280118 0.029468 0.0240459 0.0132367 -0.0204422 0.0169796 0.0155182 0.00611892 0.0117239 -0.0100079 0.00867997 0.000402744 -0.0279435 -0.0155528 -0.014591 0.00867448 0.00899009 -0.000221101 -0.00658075 -0.0152731 0.0124042 0.0058783 0.0132167 0.0102478 -0.0109836 -0.0260927 -0.0261201 -0.0228578 -0.0299615 -0.0274159 -0.017434 -0.0247362 -0.0342014 -0.0289993 -0.0340037 -0.0057451 -0.00851676 -0.0340907 -0.0261585 -0.0318381 -0.0109795 -0.00755252 -0.0197978 -0.0222155 -0.021407 -0.0124986 -0.0199791 -0.0239682 -0.0286656 -0.0232056 -0.0022425 -0.00496935 -0.00103337 -0.00724387 -0.0143972 -0.00814243 -0.00657295 -0.00606094 -0.00412969 -0.0134176 -0.0224867 -0.0131068 -0.0185289 -0.011195 -0.0165561 0.000981386 -0.000177934 -0.0108365 -0.00412751 -0.00349164 0.00496408 0.00692246 -0.0043736 -0.00245415 -0.0049394 0.0129635 0.0110027 0.000956671 -0.00271875 -0.0220393 0.0184424 0.0227697 0.012836 0.00703443 -0.0032975 0.0138255 0.0276068 0.0288741 0.0118538 0.00562273 0.0299812 0.0486535 0.0459748 0.00725614 -0.00769871 0.0364994 0.0500935 0.0352931 0.000416469 -0.0117769 -0.00387136 0.000645593 -0.00182413 -0.0100575 -0.0085168 0.00392655 0.00345969 -0.00499534 -0.00387319 0.00643827 -0.00433085 -0.00692993 -0.0173235 -0.00236185 0.0124179 0.000755893 0.00726288 -0.00118836 -0.000506728 0.0261754 0.0157674 0.0180126 0.00547119 0.0106101 0.0245834 0.0077838 0.0090726 0.00969569 0.00607976 -0.00335712 -0.00952938 0.00217594 -0.00108247 -0.00713144 -0.00378684 -0.0203718 -0.0143384 -0.0126614 -0.013399 -0.00915223 -0.0136432 -0.021554 -0.0151388 -0.013413 -0.0114543 0.0108999 -0.00639386 -0.0114399 -0.00637803 -0.00275232 -0.00123765 -0.00175346 0.0031119 -0.00483551 0.00383385 0.00474929 0.000892116 0.00800254 0.00189537 0.0112725 0.0124252 0.0175474 0.017409 -0.00129095 0.0170716 0.0326337 0.0554049 0.033253 -0.00441133 0.00547269 0.0299956 0.0573438 0.049548 0.00664528 0.00627543 0.0103698 0.00768294 -0.00239335 -0.0015743 -0.00523357 0.00677124 -0.00437897 -0.00984373 0.00460756 0.00777892 -0.00521759 -0.0129099 -0.0189172 -0.00207451 0.00871021 0.00060836 -0.00731281 -0.0207814 -0.00574359 -0.00492305 -0.0207003 -0.0306823 -0.0338254 -0.0101185 -0.0117312 6.80736e-05 -0.00348995 -0.00371444 -0.00107948 -0.00531505 0.0064118 0.00495466 0.00590149 -0.00409826 -6.25593e-05 0.0125774 0.0118054 0.0126632 -0.00797058 -0.00140774 0.0386801 0.0411909 0.019477 -0.0085737 -0.000983143 0.0458199 0.0467401 0.0211767 -0.00830582 0.00145235 0.0127424 0.0115312 0.00643537 -0.00914376 -0.00653395 0.0255542 0.01216 0.0116509 0.0108824 0.00584941 0.0289016 0.0293155 0.0194689 0.011385 0.0103469 0.0398956 0.0481183 0.0347498 0.0136699 0.0144684 0.00919587 0.0304242 0.0339005 0.0251245 0.0168713 -0.00282421 -0.000115764 -0.00206529 -0.00361327 -0.00731502 -0.00169716 0.000906104 -0.00144779 0.000251115 -8.26705e-05 0.000756422 0.00690322 0.0061011 -0.00412131 -0.00528248 0.0101175 0.013941 0.00932052 -0.00502602 -0.00496686 0.0127656 0.0120389 0.0111079 -0.00162988 -0.0092631 -0.00596418 -0.0107444 -0.00782658 0.00941862 0.00800896 -0.00251756 -0.0153787 -0.0153131 0.0112701 0.00952511 0.00296136 -0.0100824 -0.0258902 -0.00106172 0.0081082 0.0174755 0.0014267 -0.0279076 -0.00884298 0.00580689 0.0255455 0.00467057 -0.0267723 -0.0114337 0.00127625 -0.00599256 -0.00303354 -0.00209631 -0.00202093 0.000262238 -0.00511347 -0.00215229 0.000997595 0.00909865 0.0148876 -0.0273622 -0.0220265 -0.0133394 0.00889987 0.0248676 -0.0468749 -0.0382575 -0.0219114 0.00682752 0.0238814 -0.040073 -0.0385815 -0.0199768 0.00951432 0.0217132 0.0020643 0.00210862 -0.000785236 -0.00394943 -0.00254687 -0.0033517 -0.000985774 0.00175725 0.00369973 0.00367122 -0.00781948 -0.00328257 -0.0028601 -0.00214632 -0.00318293 0.00632091 0.00635139 -0.00341028 -0.00953359 -0.00449567 -0.00638034 0.00312694 -0.00316987 0.00140889 -0.00391833 -0.0147773 -0.0257576 -0.0128937 -0.0153982 -0.0202831 -0.00369783 -0.00997399 -0.00124606 -0.00403038 -0.0154968 -0.0067695 -0.00291322 0.00578261 0.00479508 -0.0078632 0.0177214 0.0214081 0.0159774 0.0138826 -0.00274529 0.0213704 0.0402009 0.0232823 0.0198605 0.00158356 0.000441383 -0.000251437 0.0119132 0.00378427 0.0161759 -0.00774992 -0.00579308 0.00750831 -0.00482166 0.0136325 -0.00142177 0.00360136 0.0175931 0.00295334 0.00752986 0.0254749 0.0377112 0.0299128 -0.000339017 0.000227391 0.0511995 0.0566925 0.0388733 0.00598339 0.00989596 -0.00524509 0.000770152 0.0108243 0.00957479 0.00267729 -0.00962183 -0.00531372 0.00022525 0.00799718 0.0113856 -0.014818 -0.0119355 -0.016786 -0.00328704 -0.00266638 -0.00433712 -0.0027231 -0.0114657 -0.00709225 -0.00326367 0.00494796 0.00808182 -0.00413185 -0.00456638 -0.00415744 -0.0133034 -0.02444 -0.0257878 -0.0193648 -0.00536665 -0.0225329 -0.0356868 -0.0380759 -0.0282717 -0.00820325 -0.0292606 -0.0429191 -0.0496259 -0.0385642 -0.0173982 -0.0293633 -0.039126 -0.0447287 -0.0360573 -0.019029 -0.0239097 -0.033745 -0.0374368 -0.0298133 -0.0141842 0.00525719 -0.00178265 -0.000828986 0.00151956 0.0119357 0.00073451 -0.00427108 0.00544577 -0.000424287 0.0156896 0.00070778 -0.000828305 0.00567479 -0.00941356 0.0138355 0.0109822 0.0154334 0.00747268 -0.0186818 -0.00205916 0.00986797 0.00516306 -0.00027077 -0.0147379 -0.00622249 0.0214533 0.0167432 0.0165223 0.00937441 0.00591284 0.0249349 0.0203369 0.0201348 0.0121437 0.00485839 0.0351237 0.0286856 0.024344 0.0166915 0.0115623 0.0531818 0.0506359 0.0236536 0.00167667 0.00345196 0.0693048 0.0696419 0.0384064 0.00589549 0.00442658 -0.012074 -0.0118381 -0.0122315 -0.0142085 -0.0045037 0.000760883 0.000641537 -0.00539611 -5.66642e-05 0.00687262 -0.0068426 0.00142539 -0.00082591 0.00348947 0.0196828 0.000179476 0.0201898 0.0149686 0.0118321 0.026279 0.0146556 0.0255929 0.0214892 0.0169543 0.0243872 0.00199965 -0.00144717 0.00589773 0.00441444 0.00244555 -0.00256715 -0.00373869 0.00020153 0.00725249 0.000661946 -0.00722932 -0.00779216 -0.0031884 0.00336699 0.000258908 0.00201371 -0.00569109 -0.0077936 -0.00549982 -0.00602613 0.00589566 0.00825427 -0.0044538 -0.00610324 -0.00673909 -0.0481565 -0.0520204 -0.0457612 -0.0340833 -0.0237052 -0.0463586 -0.0557543 -0.0559718 -0.0401032 -0.0287276 -0.0602155 -0.0700912 -0.0674189 -0.0540963 -0.0460022 -0.0498426 -0.0530176 -0.0586047 -0.0539287 -0.0453243 -0.0343502 -0.0409359 -0.0514586 -0.0452153 -0.0467556 -0.0175686 -0.00529771 -0.0024797 -0.00932881 -0.0167497 -0.0143275 -0.00549384 -0.00779131 -0.0071817 -0.00736501 -0.0178049 -0.00553109 -0.00154826 0.00142342 -0.00232902 0.00715583 0.0199694 0.00499774 -0.000251878 -0.00282854 0.00674088 -0.00296675 -0.00209505 0.0114819 0.00501657 -0.0240983 -0.0362255 -0.0415371 -0.0380763 -0.0353455 -0.0177777 -0.0285625 -0.0293273 -0.0282988 -0.0302467 0.00582 -0.00765592 -0.0111529 -0.0225454 -0.0370004 0.0240886 0.0191177 0.00444869 -0.0138862 -0.0297185 0.0420156 0.0353963 0.0226938 0.000499213 -0.0193339 0.00598344 0.0134484 0.00164402 -0.00503455 -0.00314442 0.0210305 0.0178009 0.00514414 -0.00129553 0.00555514 0.0134391 0.00604253 -0.0072423 -0.00779141 -0.000859869 0.00994279 -0.000417336 -0.020287 -0.0119485 0.00206367 -0.00196339 -0.00117565 -0.0195116 -0.0038288 0.00572925 -0.0119223 -0.00801149 -0.00385768 0.00764325 0.0136864 -0.00929836 -0.007176 -0.00544538 0.0080906 0.0155515 -0.0172312 -0.0129243 -0.0107625 0.00884944 0.0200207 -0.0155507 -0.0107597 -0.012235 0.0059166 0.0204845 -0.00587912 -0.00621295 -0.00252029 0.0102799 0.0169822 0.00181791 0.00591901 0.00623571 0.00557508 -0.00247296 0.00350924 0.00872878 0.0108401 0.015941 0.0136359 -0.00468647 -0.00272755 -0.00295443 0.00387338 0.0108853 -0.00539705 0.00276323 -0.00297105 -0.00426696 -0.00121512 0.00889559 0.0121591 -0.00376883 -0.00551407 -0.0068028 -0.00157416 -0.00206191 -0.00326247 -0.0110866 -0.0108528 0.001313 -0.00283257 -0.00483045 -0.00934646 -0.00527887 -0.00976591 -0.00959228 -0.00691708 -0.00489059 -0.00372165 0.00707685 0.00895333 0.00144639 -0.0102292 -0.00715377 0.0308133 0.030769 0.00828576 -0.00610021 -0.000995552 0.0128475 0.00221108 -0.0081393 -0.0153881 -0.00347728 0.0111664 0.00302597 -0.0109983 -0.00816115 -0.00386781 -0.000870773 -0.0107846 -0.0113589 -0.0130212 -0.00132105 -0.0105308 -0.00268125 -0.00531408 -0.015985 -0.00563285 0.00381642 0.00640757 0.004521 -0.0116054 -0.0137821 -0.00492928 0.0020323 0.00467694 0.0060509 0.00249641 -0.0160045 -0.00522553 0.00646084 0.0159794 0.0252791 -0.0208851 -0.0178724 -0.00581534 0.00901505 0.021525 -0.00398517 -0.0060325 -0.0112791 -0.00877633 0.00978862 0.00107552 0.00240246 -0.00195649 -0.00190674 0.00163274 -0.00867675 -0.00609778 -0.00200509 0.000217137 0.00761582 -0.0102494 -0.00837499 0.00547542 -0.000240775 0.0157269 -0.00333863 -0.00721759 0.00715998 -0.00247289 0.0075488 -0.000711156 0.00708439 0.00790358 -0.00483326 0.00528636 -0.00569363 -0.00240155 -0.00421509 -0.00153902 0.0119056 -0.00369919 -0.00436667 -0.00927561 -0.0051365 -0.00460341 -0.00580049 -0.0113803 -0.0161784 0.0058406 0.00465618 -0.0150759 -0.0219501 -0.0242615 0.00782386 0.0171571 -0.0200223 -0.0164073 -0.0199879 0.0105851 0.0146399 -0.0286069 -0.00906739 -0.0115908 0.00911439 0.00494716 -0.0101493 -0.0164864 -0.0209633 -0.0030968 0.0157488 -0.019894 -0.0309228 -0.0416204 -0.02506 0.00290865 -0.0383024 -0.0441271 -0.0564817 -0.0388996 -0.0183726 -0.0351983 -0.0412322 -0.0544136 -0.0400696 -0.0219288 -0.0292335 -0.0398542 -0.0495147 -0.0289693 -0.0145079 -0.0212555 -0.00751199 -0.0111403 -0.0131543 -0.0112431 -0.00219547 0.00603902 0.005835 -0.0128569 -0.000219117 0.00514849 0.00761248 0.0125159 -0.0260057 -0.00722918 0.0258623 0.0311154 0.0076175 -0.032239 -0.0100275 0.0269255 0.0280358 -0.00020631 -0.031142 -0.0100373 -0.00716586 -0.00809022 0.00630519 0.0101597 0.00412428 -0.0122277 -0.0105773 -0.00629199 0.0034418 0.00783473 -0.0187052 -0.020467 -0.0158849 -0.00662987 -0.00394365 -0.00656998 -0.00275079 -0.0179673 -0.0100313 -0.00279084 -0.00674913 -0.00371273 -0.00944946 -0.00512444 -0.00769625 0.00639994 0.00723857 -0.00164063 -0.00936882 -0.00609486 -0.00746532 -0.0101561 -0.00616322 -0.0149411 0.00299637 -0.00553418 -0.0127558 -0.00954264 -0.0305602 -0.00880027 0.0220831 0.0267129 0.00780449 -0.0248516 -0.0201183 0.0207353 0.0170485 -0.000744655 -0.016724 -0.0265228 -0.00231487 0.00527708 0.0067761 0.0046293 0.00410194 -0.0140047 -0.00512673 -0.00305027 -0.00222464 0.0020838 -0.0190006 -0.00840109 -0.00141075 -0.00764749 0.000805693 -0.00210859 -0.0043623 -0.0104107 -0.0133058 -0.00264182 0.00861178 0.0172355 -0.00103453 -0.0138041 -0.00134828 -0.00771009 -0.0140264 -0.0118682 -0.0146978 -0.0191805 -0.0018022 -0.00691486 -0.00604187 -0.00373259 -0.0047862 -0.00500433 -0.00328735 0.00181198 -0.00931381 -0.0100245 0.0126633 0.0263767 0.0145106 -0.00157321 0.00181746 0.0198142 0.0258733 0.0131819 0.00580336 0.0055268 -0.00497031 0.00174453 0.00217401 -0.00134447 -0.00801283 -0.00827443 0.00540927 0.00222004 0.000336231 -0.000685428 -0.0109657 -0.002402 0.00556165 0.00546232 0.00103359 -0.00260803 0.00343851 0.000367217 -0.0039465 0.00225636 0.00762979 0.0172729 0.00885872 0.00333108 -0.00100067 0.0186553 0.0158449 0.0114491 -0.000288656 0.00654118 0.00902386 0.00456129 0.000980526 -0.00700409 0.00564961 -0.00102092 -0.00459074 -0.00398784 -0.00491294 0.0156427 -0.0174197 -0.0081035 -0.0005019 -0.00190125 0.0140841 -0.011054 -0.00987593 0.000157171 -0.00126234 0.0103013 -0.0143565 -0.0136731 -0.0102235 0.00318968 0.0152223 -0.024363 -0.0278813 -0.0285922 -0.0148286 0.00856481 -0.033829 -0.0380639 -0.041194 -0.0289194 -0.00296704 -0.0259197 -0.0283555 -0.0372434 -0.0317793 -0.00901893 -0.0156872 -0.0184342 -0.0333678 -0.0235157 0.00132178 0.0197838 0.0199783 0.0150643 -0.00762179 -0.010211 0.0218173 0.0180654 0.0154801 -0.00899429 -0.0128022 0.0240059 0.0214798 0.0248688 -0.0141361 -0.0192148 0.00602063 0.0110333 0.0228937 -0.010409 -0.0226577 0.0225936 0.0166153 0.0205613 -0.011317 -0.0166722 0.00617042 0.00379281 0.00473192 0.000503976 -0.00565514 0.00703831 0.004663 0.00355858 0.00614681 0.00379718 0.00955819 0.0162894 0.00737347 0.00234172 0.00202816 0.0300461 0.0402685 0.0259649 0.00713814 -0.00410542 0.00269491 0.00997808 0.00504759 -7.50609e-05 0.00584004 -0.0140442 -0.0287003 -0.0343033 -0.0350563 -0.0128139 -0.0113899 -0.029206 -0.0269454 -0.0373736 -0.0242187 0.0131771 -0.0072952 -0.01068 -0.0323586 -0.0296206 0.0378147 0.0329703 0.00983009 -0.0248658 -0.0226173 0.0421341 0.0388134 0.011393 -0.0110798 -0.00795441 0.00459545 0.0035471 0.00117326 -0.00374738 -0.0106585 -0.0041241 -0.00165369 -0.00425716 -0.00298009 -0.00472605 -0.0122219 -0.0151561 -0.0121069 -0.00463961 -0.00481653 0.0148726 0.00875759 -0.010306 -0.00512628 -0.00446858 0.0134559 -0.00631614 -0.0196198 -0.00204337 -0.00477293 -0.00471796 -0.000783139 -0.00908678 -0.0120326 -0.0371204 0.00778463 0.0104179 0.00482959 0.00171478 -0.0248025 0.0152931 0.013319 0.00876551 0.00597186 -0.0210764 0.0156765 0.0171976 0.0144204 0.00826125 -0.0167596 0.0351658 0.0345305 0.0214207 0.0111299 -0.0130014 0.00086304 0.0024807 -0.00315547 -0.00811277 -0.0114361 0.00857731 0.00702573 0.0002168 -0.00499628 -0.00528302 0.00963265 0.00131711 -0.000577332 -0.00938002 -0.00705968 0.0187334 0.0233308 0.00878235 -0.0129578 -0.0111464 0.0405132 0.0375001 0.0118438 -0.0116324 -0.00376432 -0.00321657 -0.00410055 -0.00646111 -0.00577228 -0.00670624 -0.00959667 -0.0110754 -0.0178566 -0.00845 -0.00150387 -0.0186102 -0.024831 -0.0381698 -0.0216474 -0.00881275 -0.00882174 -0.0197812 -0.0434623 -0.0185006 -0.00362873 -0.0151693 -0.0153536 -0.031316 -0.00885774 0.000511875 -0.0110177 -0.00649564 -0.00338971 0.00291424 0.0049966 -0.0203913 -0.00494231 -0.0011598 0.000692399 0.0101112 -0.0187647 -0.0127654 -0.00479206 -0.00609936 -0.000181958 0.00276617 0.00281411 -0.00560828 -0.0118515 -0.00276347 0.00992723 0.00712481 -0.0115305 -0.00967977 0.00271783 -0.0048 0.00312349 0.0118233 0.000699957 -0.00494641 -0.0207469 -0.00826776 0.0212672 0.0112058 0.00344801 -0.0455097 -0.0291161 -0.00800845 -0.004327 -0.00514324 -0.0223576 -0.00605007 0.0342987 0.0129394 -0.00738103 0.00530623 -0.0170609 0.000232271 -0.0139874 -0.00845087 -0.0193816 -0.00592015 0.0123842 -0.00013514 -0.00536478 -0.00380186 0.0338989 0.00754553 0.0129137 0.00269574 0.0233453 0.0514364 0.0347167 -0.0102371 -0.00583054 -0.0208531 0.0257089 0.0304635 0.00549818 0.00507528 -0.00855117 -0.0321615 -0.0211855 -0.0291552 -0.0152541 0.0239038 0.0201508 0.00168899 0.00713231 0.0037348 0.0171776 0.0464896 0.04394 0.0254375 0.00702912 -0.0108766 -0.00601185 0.0227937 0.0422105 0.0224679 -0.0300838 -0.0556797 -0.0355582 0.00246709 0.0104717 0.0109103 -0.0286441 -0.0141768 -0.0176897 -0.00129228 -0.0163169 -0.0173764 -0.00728343 0.00370117 0.00743366 -0.0162425 -0.04458 -0.0211745 -0.0115827 -0.0145972 0.0277449 -0.00636876 -0.0431228 -0.028449 -0.0190257 0.0473379 0.058902 0.0313041 0.0042365 0.0102975 -0.00110367 0.0300838 0.0384658 0.00916177 0.0182474 0.00900918 -0.00914567 0.0018742 0.0081211 0.00679466 0.0373998 -0.00327233 -0.0257363 -0.00970552 0.00204984 0.0587662 0.0689438 -0.00291321 -0.0194767 -0.0154253 0.0386517 0.0575799 0.0517828 -0.00331041 -0.0126755 -0.00153341 0.0165949 0.0349855 0.0159353 0.0083176 -0.0127935 0.0163645 0.0160721 -0.00825069 -0.00311298 -0.0174149 0.00750388 -0.000676172 -0.0115466 -0.00697986 -0.0431498 -0.0498295 -0.0364501 -0.0219457 -0.00927764 -0.0248262 -0.0658245 -0.0606187 -0.0171189 -0.00408179 0.0171495 -0.00679985 -0.0171318 -0.00899115 -0.0165244 0.00989599 -0.00660443 -0.0286682 -0.00480722 -0.00749826 -0.0082037 -0.00644335 -0.0151352 -0.0131753 -0.0137263 -0.0317348 -0.040353 0.00780697 0.036184 0.0182517 -0.0271401 -0.0608016 -0.00361098 0.0397494 0.00645435 0.0150798 -0.0315878 -0.0219907 -0.0204764 -0.0175939 -0.0309188 -0.0284608 -0.00501227 0.00293119 -0.012773 -0.00687942 -0.00682045 -0.0272238 0.00441413 -0.00126389 0.0169395 0.0567997 -0.000835722 -0.037223 -0.0292194 0.000347999 0.0573108 0.0882721 0.0172503 -0.0106831 -0.018418 -0.0293388 0.00316117 -0.0155898 -0.00519504 -0.00348456 0.00337916 -0.00317578 -0.0132102 -0.0102101 -0.00224723 -0.0217298 0.0102536 0.00388426 -0.00203636 0.0326593 -0.0112961 -0.0245094 0.00425081 0.0035238 -0.00160681 0.00839476 -0.0143371 -0.00321497 0.0030975 -0.0304078 -0.0202927 0.0043321 0.00922589 0.011834 -0.00729569 -0.00689149 -0.00223772 -0.000864283 -0.00851149 -0.010165 0.00272054 0.0175902 0.00641267 0.000611182 0.000662863 0.0106727 0.0267141 0.0228533 -0.000700827 -0.0270361 0.0156091 0.0302948 0.0164826 -0.0114648 -0.0180475 -0.0416567 -0.0180007 -0.0176326 -0.00489684 -0.0160698 -0.0121141 -0.00077589 -0.00707885 0.00615432 -0.0274151 -0.0227769 -0.0107591 -0.0213712 -0.00958315 -0.0115415 -0.0110576 0.00207397 -0.0148892 -0.00876932 -0.000335189 0.0129683 0.0140916 0.00568203 0.00451614 0.016112 0.000487764 0.0073629 0.0199125 0.0213075 -0.0040073 0.000344607 0.00294693 0.000264542 0.00183095 -0.015852 -0.0189999 0.0144037 0.0214179 0.0133194 -0.0241478 -0.0281889 -0.0425707 -0.0232868 -0.00974289 0.00922187 0.0304371 0.00338352 -0.0218245 -0.0185768 0.0224499 -0.000210197 0.00257303 -0.00684215 0.00569837 -0.00252237 -0.0120345 -0.0031703 0.00866941 0.00522908 -0.00383544 -0.00983625 -0.0150713 0.00610683 0.0038836 0.00184174 -0.0148232 -0.0287767 -0.00896483 0.00156427 -0.00470703 -0.00253984 -0.0210485 -0.0113666 0.000349815 0.0012817 -0.0153486 -0.00695184 0.00113976 0.00830545 -0.0205093 -0.00732176 -0.00737652 -0.00933449 -0.00859077 -0.0083617 -0.0613896 -0.0169724 0.00408911 -0.0118374 0.0650635 0.00207937 -0.0789666 -0.0198664 -0.0191883 0.0602257 0.100715 0.000110887 -0.0522448 -0.0362929 -0.0476682 0.00724523 0.0122209 -0.00619394 -0.0132296 0.000749136 -0.0116273 -0.00582574 -0.00913996 -0.00905334 -0.0179898 -0.044099 -0.0164462 -0.00633933 -0.00063035 0.0276476 0.0199655 -0.0306856 -0.0220591 -0.00481419 0.0344187 0.105527 0.0798272 0.0165722 -0.0127508 -0.0159657 -0.0110029 0.029013 0.00428331 -0.00887221 0.00740263 0.0172149 0.0232226 0.0132769 0.0166447 0.00200479 0.0112927 0.00712419 0.00761986 0.0127444 -0.00698952 0.0134253 -0.00534894 -0.00951438 -0.00272612 -0.0437695 0.00239981 0.0136649 0.0160901 0.0252438 -0.0401875 -0.0338203 -0.00742217 0.00066876 0.0137118 -0.0133157 0.00463838 0.0144308 0.00904287 0.0108717 -0.0362819 -0.0132414 0.016775 0.0156943 0.00655656 -0.0443994 -0.035938 -0.0241647 -0.00897288 -0.017209 -0.00940047 -0.0403427 -0.057583 -0.0412771 -0.0393442 0.0137841 -0.000670242 -0.0109684 -0.0119499 -0.0171952 -0.00219387 -0.00206327 0.000815111 0.00541797 0.00597012 -0.0227108 -0.0105935 -0.000633662 0.00621731 0.00388435 -0.000856624 -0.00305785 0.00780196 0.0187033 -0.00184274 0.0128823 0.0259638 0.0276688 0.0220966 0.0078905 0.00347498 0.0100875 0.0166948 0.0133098 0.00884427 0.0278587 0.0311602 0.00594119 -0.0091917 -0.0028717 0.0434927 0.0571119 0.016161 -0.00181228 -0.00149445 0.00913384 0.0136739 -0.0139319 -0.00725976 0.00931105 -0.0397565 -0.0519939 -0.0424432 -0.00775534 0.0318278 -0.00794863 -0.0171205 -0.00458339 -0.000153236 0.00491312 -0.0266876 -0.0438482 -0.0297715 -0.00994407 -0.0284468 0.000877778 -0.0429605 -0.0785838 -0.0367481 -0.0251185 0.0770774 0.10027 0.00834167 -0.040523 -0.0265194 0.0740173 0.15228 0.164655 0.078025 0.0163454 -0.0506116 0.00528321 0.0572762 0.021254 0.0149986 -0.036594 0.00236705 0.00255611 0.00885798 0.0115908 -0.0614859 -0.0164256 0.00970102 0.0231131 0.0172398 -0.093192 -0.083205 -0.0503178 -0.00780538 -0.0107486 -0.0186914 -0.0876694 -0.0956548 -0.0453134 -0.0243513 0.0484721 0.00681274 -0.0288763 -0.0314707 -0.0124408 0.00162734 0.0236476 0.0108404 -0.00674698 0.00665837 -0.00966925 0.0239267 0.0284006 0.0145035 0.0172067 -0.0268748 -0.0555141 -0.0271495 0.00273927 0.0102231 -0.0118056 -0.0448041 -0.032201 0.00276361 0.0196708 0.0140512 0.0100354 0.0111587 0.00542153 0.00236734 -0.0318783 -0.0213435 -0.00595115 -0.000888556 -0.00213035 -0.0135738 -0.0275532 -0.0116128 0.00665399 0.00251556 0.00528249 0.00663625 -0.0158468 -0.0125895 -0.0126866 0.0166993 0.0538691 0.0586437 0.0319227 0.0108768 -0.029072 0.00506977 0.0369855 0.0237969 0.0132528 -0.000266796 0.00278394 -0.00607706 -0.00197056 -0.00268489 -0.00647326 -0.0135382 0.00792594 0.0107902 -0.00284058 -0.0154755 -0.00787358 0.0258326 0.0312202 0.0153527 -0.0234958 0.0126521 0.0643851 0.0574473 0.0261252 -0.000983254 -0.0105157 0.00863459 0.000228102 -0.00754033 0.00733373 0.00997127 0.0136338 0.0076795 0.00773291 0.00397716 0.00324382 7.15301e-05 -0.00232996 0.00325197 0.0146031 0.0139403 -0.00340865 -0.00808794 -0.00209378 -0.0107891 0.0148433 0.0086329 -0.00781422 -0.00319879 -0.00215709 -0.0126913 0.00190609 -0.00167325 0.00633147 -0.00864443 0.00220032 0.00716356 -0.00558817 -0.00303596 -0.0253713 0.0150714 0.0366557 0.0219502 -0.00267234 -0.0406979 -0.0546927 -0.00947443 0.0101903 -0.00753107 0.0067402 -0.0177275 -0.0274424 -0.00611414 0.00131275 -0.00090149 0.00910909 -0.00110966 -0.00406934 0.000306121 -0.0203619 -0.0128265 -0.0102662 -0.0194268 -0.0215427 -0.0108034 -0.0289004 -0.00453727 -0.00769959 -0.0131427 0.0192843 -0.0130236 -0.0640085 -0.026632 -0.0210667 0.0394091 0.116812 0.110812 0.0302712 -0.00345477 -0.0220803 0.0409937 0.072778 0.0173542 -0.0185446 0.00158672 0.00071679 0.00384254 0.0083912 0.0141968 -0.0149019 -0.00576862 -0.00387755 -0.00405847 0.00595527 -0.0259873 -0.026234 -0.0150532 0.00907454 0.00926132 -0.0187106 -0.036466 -0.0254464 0.00107544 0.0128174 -0.000993228 -0.0264641 -0.0287819 -0.0184517 -0.0104548 0.00604043 -0.0128115 -0.00207379 0.000795123 0.00528848 0.0155157 -0.00410499 -0.0100746 0.0101799 0.00128362 0.0333495 0.0268984 -0.0161877 -0.0149579 -0.0115339 0.0122593 0.0429039 -0.00480138 -0.0219625 -0.0153848 0.0103299 -0.00227867 0.0048871 -0.005023 -0.00952605 -0.016268 -0.00314706 0.0185725 0.0146067 0.016398 -0.0345578 -0.0578373 0.00254421 